{
  "component_stats": {
    "reconstruction": {
      "mean": 0.5739094614982605,
      "std": 0.16193480789661407
    },
    "weighted_feature": {
      "mean": 0.5677364108558111,
      "std": 0.1597231138805218
    },
    "latent_distance": {
      "mean": 31.87482332679996,
      "std": 11.852419222451198
    },
    "density": {
      "mean": 22.178407669067383,
      "std": 6.543855667114258
    }
  },
  "feature_weights": [
    0.7609507441520691,
    0.9612278938293457,
    0.9816263914108276,
    0.9116762280464172,
    0.8977014422416687,
    0.9450077414512634,
    1.0482717752456665,
    0.9381434917449951,
    0.8866836428642273,
    1.0721185207366943,
    0.8923429846763611,
    0.957504391670227,
    1.0074608325958252,
    1.1113357543945312,
    1.1930943727493286,
    1.0904582738876343,
    1.053910255432129,
    0.9837695360183716,
    1.026411771774292,
    1.1670523881912231,
    1.018477201461792,
    0.9926932454109192,
    1.009935975074768,
    0.9974619150161743,
    0.8997317552566528,
    0.9500188827514648,
    1.2217732667922974,
    0.7726472616195679,
    1.0379011631011963,
    0.9960035085678101,
    1.057539701461792,
    1.0231858491897583,
    0.9147485494613647,
    1.1914772987365723,
    0.9533171653747559,
    1.0763404369354248
  ],
  "latent_mean": [
    -0.1129949614405632,
    -0.03854081779718399,
    0.0169240552932024,
    -0.1906375139951706,
    -0.1055615171790123,
    0.028482088819146156,
    0.22383761405944824,
    -0.03791889175772667,
    -0.08818773925304413,
    0.04674552008509636,
    0.05153813585639,
    -0.08171280473470688,
    0.1968652904033661,
    0.03826301917433739,
    -0.23169833421707153,
    0.576405942440033,
    0.41868624091148376,
    -0.10323254019021988,
    -0.02313731238245964,
    -0.054468102753162384,
    -0.3367665708065033,
    -0.22722584009170532,
    -0.021192900836467743,
    0.524090051651001,
    0.3586435317993164,
    0.16340471804141998,
    0.28242796659469604,
    -0.1643424779176712,
    -0.24016569554805756,
    -0.028402172029018402,
    -0.10968988388776779,
    -0.020343443378806114
  ],
  "latent_inv_cov": [
    [
      32.55330535546191,
      -19.39779103188913,
      -11.46268298522831,
      17.287399800044504,
      -7.775397678051144,
      -10.877769865052686,
      3.1152864801027307,
      8.824281368789064,
      3.37315827438106,
      -7.456239106528534,
      0.446307786799944,
      -14.729423723866883,
      1.0854804695184421,
      -4.7622939073257395,
      12.679394888639129,
      -7.552195317613447,
      -7.374540965609734,
      -8.06698007357471,
      5.108675639576714,
      3.480580158873288,
      4.956049728445605,
      -1.631274520557412,
      2.314624789106941,
      6.355167924238996,
      8.718738662315616,
      -5.99494453339743,
      -7.0307134623425505,
      -26.124977013176906,
      -16.373646527196428,
      20.476611524240333,
      -0.7869403891967185,
      4.662783322904393
    ],
    [
      -19.39779103188915,
      36.677966030293526,
      6.9956647929978235,
      -9.942737302893189,
      2.537515323401923,
      20.218383913380535,
      5.541213276984745,
      -4.204082225571131,
      11.173600284193713,
      -4.545754418028122,
      6.163286027324294,
      10.040073195232813,
      10.855978217928817,
      8.724066390459216,
      -19.35722870350714,
      -5.154342698268984,
      11.943781030597036,
      4.725619936157547,
      -6.337243868517699,
      17.837680460109976,
      -10.2365539584124,
      -7.03418139026607,
      -3.4047071736166177,
      -2.5528421874072635,
      -4.973221284580008,
      1.469415242625479,
      14.47556844582133,
      9.789946351291183,
      16.088595961579983,
      -0.41518105103019914,
      -0.48570806028315205,
      0.8800140406461672
    ],
    [
      -11.46268298522856,
      6.99566479299797,
      49.31277519107649,
      -16.630837710729867,
      4.118602764829746,
      4.014606865897053,
      -12.016730115036854,
      -17.991055193683923,
      22.1770692369621,
      11.752930157327649,
      -5.352681045509041,
      26.39302485600258,
      -1.2526122559438952,
      0.3907359536604234,
      -24.405888081192398,
      -0.13975590312599878,
      -1.3323789828077197,
      -4.6646880030274485,
      13.614980548950346,
      -0.3974241305151987,
      -9.583197747034806,
      -27.012222041494734,
      -8.348442301669396,
      5.409627555019489,
      -8.297751609548039,
      22.340135684674145,
      -19.43987321806055,
      8.297011201278256,
      32.063228577392756,
      -18.54620086500618,
      -26.418829982346644,
      -0.261311886519614
    ],
    [
      17.287399800044735,
      -9.942737302893294,
      -16.630837710729807,
      39.264918633701974,
      -1.8610173538578798,
      -6.520088862980218,
      4.610823141029232,
      17.64845995430469,
      -8.242704572541205,
      4.222061629207076,
      -2.9589070340987282,
      -2.04150941290445,
      -1.7376793758394582,
      -26.082556751234378,
      -1.7005524292749232,
      -11.458582563685145,
      -5.394544039164893,
      -7.794857216437176,
      -7.463775965639996,
      7.906088430763081,
      -6.0333318122217925,
      8.274887894706099,
      -6.133704256396487,
      2.1720383174827727,
      -5.599210232095758,
      -11.949312233703111,
      0.037279130872115575,
      -18.532514338170778,
      -22.355761957240443,
      18.18847534164902,
      3.737057843876314,
      14.69570433967702
    ],
    [
      -7.775397678051156,
      2.5375153234019,
      4.1186027648295935,
      -1.8610173538579111,
      28.611752177242728,
      -4.7386172659707215,
      -0.46169610919424603,
      2.3077285898481463,
      -0.26624938039216833,
      0.5984278510833271,
      3.11358660067402,
      3.9950954532068743,
      -6.344946482273229,
      -4.505072304071596,
      -17.33839104593846,
      -9.377489043516098,
      -4.155666815282317,
      -6.727275443789911,
      -6.749328270759412,
      -7.2569237058226115,
      -12.885585702234685,
      -1.3156148116669424,
      0.41240674776459946,
      0.692440135154291,
      0.9807643390472798,
      11.535733553758725,
      6.9155987033938,
      2.468141081831597,
      7.289676664715277,
      -10.357025878984416,
      -2.0075922156442627,
      7.146208130898426
    ],
    [
      -10.877769865052707,
      20.218383913380507,
      4.014606865897013,
      -6.520088862980147,
      -4.738617265970722,
      33.087883316113555,
      0.5005191840648365,
      -2.9190273236009476,
      11.331130642317403,
      -6.4117143026170185,
      1.7753210683959075,
      -7.056464208014354,
      0.8446957409589824,
      8.424385023705177,
      -14.810728885234218,
      0.12083897403128403,
      6.315960059250211,
      1.8509745012749188,
      -8.933583471520027,
      10.545032170278143,
      6.075029295170795,
      -12.65997334131087,
      -8.428593819039376,
      -7.32752549881603,
      0.5967082531715755,
      -4.9818383614092046,
      8.82526909196552,
      11.149459642975545,
      12.986842378749047,
      -2.989703180577599,
      -2.9318349889550457,
      -5.029502705707281
    ],
    [
      3.115286480102698,
      5.541213276984757,
      -12.01673011503675,
      4.610823141029007,
      -0.4616961091942448,
      0.5005191840649102,
      29.42226832581485,
      8.862635143107713,
      17.846628625324833,
      -3.263587817807921,
      11.100303861083269,
      -13.90617986693093,
      8.551453199929602,
      11.533583047831897,
      -4.0175758633041445,
      -9.288400190538471,
      1.7503657853271162,
      0.6951309901255097,
      -1.1487105146858014,
      15.016668660998436,
      -2.9690352084419582,
      -8.279947109516002,
      9.625690153762816,
      -3.1223143825428936,
      14.611012877414492,
      -22.84160561197323,
      13.609527847838688,
      -19.06504845117817,
      -7.4071756745612385,
      14.523102667861913,
      7.129760411173741,
      5.452591197442478
    ],
    [
      8.824281368789185,
      -4.204082225571221,
      -17.991055193683884,
      17.648459954304624,
      2.3077285898481215,
      -2.919027323600992,
      8.86263514310777,
      20.46467814062766,
      -0.33840302325974186,
      -2.282570548652346,
      3.273661113727737,
      -12.763405570865936,
      1.346745453175518,
      -8.71106529131362,
      -0.6966581718961717,
      -5.469810273766998,
      -6.570395054110235,
      -6.090822648336123,
      -8.532738075182294,
      3.643113411001955,
      -4.139715107263801,
      2.190669284350279,
      1.798260950505711,
      1.5607934893877007,
      5.3695494420581005,
      -10.869021259914055,
      8.660366146231965,
      -12.880966479877044,
      -12.504720997389562,
      11.232924927041894,
      3.871824580357156,
      8.53615960875949
    ],
    [
      3.3731582743807804,
      11.173600284193837,
      22.177069236962264,
      -8.242704572541598,
      -0.266249380392026,
      11.3311306423175,
      17.846628625324687,
      -0.3384030232599019,
      53.819263506791565,
      -4.129117158583387,
      13.68734857616053,
      -2.2226577473080726,
      10.467817554512832,
      12.77556054418408,
      -30.469192672452852,
      -15.263538339511731,
      -5.2028483417216504,
      -12.047360247618663,
      4.770071539357321,
      17.25901036476484,
      -4.142919720826238,
      -38.10420191579307,
      1.2133124183947344,
      0.9172568063221554,
      16.61160345727191,
      -8.186209567599992,
      3.8682349490064523,
      -22.381659579165138,
      22.11365419192849,
      6.8562443407268265,
      -20.503867737989296,
      8.678787245890804
    ],
    [
      -7.456239106528507,
      -4.545754418028098,
      11.752930157327595,
      4.222061629207183,
      0.5984278510833839,
      -6.411714302617058,
      -3.2635878178078594,
      -2.282570548652289,
      -4.129117158583367,
      31.996498738852317,
      -8.158402935386443,
      9.97873463223484,
      -1.3297799265802162,
      -6.638213838623427,
      -10.015581662837628,
      13.954831655876488,
      0.3702224105614583,
      3.3641000213448256,
      -0.49044576492946684,
      -8.041525684869457,
      2.7463467534039063,
      6.382043895216385,
      -4.222935708490338,
      -2.24325038425329,
      -13.299541150473337,
      3.3367369646925806,
      -14.850642158281714,
      11.987058203942775,
      0.848125982798993,
      -13.781572395259357,
      -7.198496583249103,
      7.106246727091021
    ],
    [
      0.4463077867998683,
      6.1632860273243155,
      -5.352681045509004,
      -2.95890703409884,
      3.1135866006740156,
      1.7753210683959686,
      11.1003038610832,
      3.273661113727678,
      13.687348576160476,
      -8.158402935386448,
      16.97104370397132,
      -1.6079334838958406,
      -0.37727474621166035,
      3.7974667923436662,
      -6.9511721804129545,
      -3.8107468448420376,
      2.465919778912342,
      -2.652484287960928,
      -2.9530544899302322,
      7.851529012375648,
      -0.5142014472609124,
      -4.031073675678927,
      7.153159230833978,
      -0.31950501807739856,
      11.053446917535592,
      -10.113478023132206,
      9.894865099639144,
      -4.764389885086844,
      1.537136383985058,
      6.069471923472686,
      0.1403892609110874,
      7.100331990789858
    ],
    [
      -14.72942372386682,
      10.040073195232806,
      26.393024856002345,
      -2.041509412904158,
      3.995095453206977,
      -7.056464208014431,
      -13.906179866930803,
      -12.763405570865775,
      -2.2226577473081592,
      9.978734632234838,
      -1.6079334838958228,
      57.14667882269876,
      -1.5592762175029748,
      -22.071336279300716,
      -8.835871733421314,
      -2.3080708614233028,
      5.889252960282023,
      1.9044409314658033,
      8.13310246520633,
      3.0774403367085448,
      -16.763750913385493,
      5.526071674656531,
      -6.712063570277739,
      4.288324441656541,
      -23.24115534000631,
      13.449326612238304,
      -9.400526809863479,
      12.609670895528277,
      12.04148606444606,
      -9.498113025504466,
      -8.24393095848093,
      7.880379755156404
    ],
    [
      1.0854804695184626,
      10.855978217928824,
      -1.252612255943858,
      -1.7376793758395244,
      -6.344946482273191,
      0.8446957409589795,
      8.551453199929659,
      1.3467454531755125,
      10.467817554512964,
      -1.3297799265802832,
      -0.3772747462115903,
      -1.5592762175029906,
      25.11211502885889,
      8.38172840851781,
      -0.5947788877974434,
      -8.047615269842769,
      -1.3925916545368906,
      1.7672491289927694,
      2.7443015031077063,
      10.901197611840988,
      -5.439515511081888,
      -5.077007675113613,
      -0.4204364623277802,
      0.4665391716971993,
      0.6005304823262934,
      -1.9477101822390381,
      8.36018985923295,
      -14.63059679057601,
      0.21740568209825692,
      9.893313174511189,
      1.982762953866571,
      -1.3960916469941465
    ],
    [
      -4.76229390732594,
      8.72406639045933,
      0.39073595366052377,
      -26.082556751234534,
      -4.50507230407165,
      8.424385023705309,
      11.533583047831705,
      -8.711065291313734,
      12.775560544183936,
      -6.638213838623382,
      3.7974667923436183,
      -22.071336279300528,
      8.38172840851775,
      43.799237802252655,
      6.450765542625955,
      6.736868822450471,
      8.353115783008223,
      8.628639509496132,
      3.81718636624561,
      3.2281808312891953,
      12.489813904259991,
      -8.368928610366606,
      11.06025477006188,
      -5.5940929441646645,
      15.120319793536279,
      -1.561013031530422,
      5.677405104231245,
      2.763279107286082,
      10.663108431357545,
      -1.4661621288491293,
      4.822206880530995,
      -14.552833712311086
    ],
    [
      12.67939488863927,
      -19.357228703507186,
      -24.405888081192334,
      -1.7005524292747933,
      -17.338391045938597,
      -14.810728885234237,
      -4.017575863304094,
      -0.6966581718961616,
      -30.46919267245275,
      -10.015581662837569,
      -6.951172180412961,
      -8.83587173342129,
      -0.5947788877974018,
      6.450765542625931,
      53.25571300409364,
      10.682957334292468,
      1.9832705377061375,
      13.20672449452192,
      10.213972314614303,
      -9.224305198658145,
      11.37613565457293,
      24.36682888330977,
      10.016517101023132,
      1.1990804187105837,
      1.3714821096854974,
      -7.222238164511688,
      -2.616362131848197,
      -2.482224458460086,
      -25.02407164090459,
      9.376265330664934,
      21.736526647068864,
      -18.806123819936357
    ],
    [
      -7.552195317613493,
      -5.15434269826894,
      -0.13975590312598224,
      -11.458582563684987,
      -9.377489043516155,
      0.12083897403128106,
      -9.288400190538571,
      -5.469810273767016,
      -15.263538339511907,
      13.954831655876614,
      -3.8107468448421584,
      -2.308070861423105,
      -8.047615269842717,
      6.736868822450294,
      10.682957334292476,
      34.22710644377914,
      7.273476297318998,
      10.901243486535616,
      0.14633605306417463,
      -11.876941498775997,
      17.179063365646826,
      13.499045345761775,
      3.9885517526144696,
      -1.1669192562131194,
      -6.609554373359819,
      3.7301965097496725,
      -13.313356686691916,
      29.02476451129021,
      0.9434431663921004,
      -14.92143280228941,
      -1.1324761898771951,
      -6.097291582287405
    ],
    [
      -7.374540965609749,
      11.943781030597071,
      -1.3323789828077262,
      -5.394544039164773,
      -4.155666815282333,
      6.315960059250262,
      1.7503657853270898,
      -6.570395054110196,
      -5.2028483417217,
      0.37022241056149774,
      2.4659197789122946,
      5.889252960282085,
      -1.3925916545368773,
      8.353115783008114,
      1.9832705377060957,
      7.273476297318961,
      17.399717298518183,
      9.572645064638316,
      0.10372667498922641,
      7.453721953306465,
      1.934119875061068,
      7.468871991743098,
      3.718663213599264,
      -2.074919727109141,
      -5.171986283783154,
      -1.1669478416107613,
      -0.15588414622655303,
      13.839354245371561,
      1.4734189205220345,
      0.8124504682035578,
      5.093552711000241,
      -2.012975149629916
    ],
    [
      -8.066980073574676,
      4.725619936157557,
      -4.664688003027478,
      -7.794857216437028,
      -6.727275443789965,
      1.8509745012749446,
      0.6951309901255104,
      -6.090822648336074,
      -12.0473602476187,
      3.364100021344856,
      -2.652484287960974,
      1.9044409314658557,
      1.7672491289928034,
      8.628639509496038,
      13.206724494521925,
      10.901243486535565,
      9.572645064638323,
      16.70640951105062,
      3.591534093369923,
      -0.5897936229061943,
      3.260692329479995,
      9.438698923492698,
      4.048710980984798,
      -1.9924928919428302,
      -4.762853509721674,
      -1.914195169232263,
      -1.3159192407273228,
      12.350373773216715,
      -4.6638217391580845,
      -2.937190979833102,
      9.124285514591865,
      -8.801714031893022
    ],
    [
      5.108675639576593,
      -6.337243868517609,
      13.614980548950507,
      -7.463775965640104,
      -6.749328270759372,
      -8.933583471519974,
      -1.1487105146858518,
      -8.532738075182381,
      4.77007153935737,
      -0.490445764929416,
      -2.953054489930243,
      8.133102465206466,
      2.74430150310767,
      3.817186366245634,
      10.213972314614205,
      0.1463360530642051,
      0.10372667498926641,
      3.5915340933699382,
      21.495100517993773,
      1.0011803694958128,
      -6.019152827109656,
      -11.06155006818427,
      3.7628605941403466,
      7.93182184546616,
      1.789491620039115,
      5.505682571686675,
      -12.912233112618393,
      -8.073732980334903,
      2.3660488656885756,
      2.388139573130326,
      -6.316573117388351,
      -5.629785883666242
    ],
    [
      3.4805801588732916,
      17.83768046010999,
      -0.3974241305150943,
      7.90608843076299,
      -7.256923705822558,
      10.545032170278196,
      15.016668660998475,
      3.643113411001953,
      17.259010364765043,
      -8.041525684869505,
      7.851529012375709,
      3.0774403367084697,
      10.901197611840963,
      3.228180831289266,
      -9.224305198658286,
      -11.876941498776025,
      7.453721953306417,
      -0.5897936229062776,
      1.0011803694958257,
      29.916498674015145,
      -9.466940562623932,
      -12.144827631301666,
      0.22539880560070855,
      1.7523561440740572,
      2.428167689375547,
      -13.085849881631047,
      9.610782322636027,
      -14.352987003028424,
      1.1670016000676449,
      19.708313454066175,
      -0.5293329538368605,
      5.366957381402597
    ],
    [
      4.956049728445546,
      -10.236553958412358,
      -9.583197747034745,
      -6.033331812221784,
      -12.885585702234735,
      6.075029295170809,
      -2.9690352084420404,
      -4.139715107263858,
      -4.142919720826311,
      2.746346753403981,
      -0.5142014472609615,
      -16.763750913385376,
      -5.439515511081858,
      12.489813904259949,
      11.37613565457292,
      17.179063365646883,
      1.9341198750611197,
      3.2606923294800403,
      -6.019152827109646,
      -9.466940562623936,
      35.34699387072258,
      13.525236672113259,
      1.1830290175707383,
      -8.824007341648285,
      3.439173313964914,
      -8.15114787617889,
      -5.793810717348913,
      10.79919044063902,
      -4.094629715297547,
      -5.2475629910981665,
      5.088226702304503,
      -5.008590359128448
    ],
    [
      -1.6312745205571513,
      -7.034181390266184,
      -27.01222204149496,
      8.27488789470645,
      -1.315614811667059,
      -12.659973341310963,
      -8.279947109515845,
      2.190669284350434,
      -38.1042019157931,
      6.382043895216357,
      -4.03107367567893,
      5.526071674656388,
      -5.077007675113512,
      -8.368928610366707,
      24.366828883309875,
      13.499045345761635,
      7.468871991743077,
      9.43869892349268,
      -11.06155006818423,
      -12.144827631301482,
      13.525236672113195,
      48.66635754537268,
      3.319752707705496,
      -5.648821513706817,
      -15.151253889423616,
      -2.16292971335099,
      2.063355953136097,
      16.875249339885144,
      -22.546038772164078,
      -2.604654575414365,
      22.781468963584565,
      0.544039769466894
    ],
    [
      2.314624789106887,
      -3.4047071736165866,
      -8.348442301669337,
      -6.133704256396573,
      0.41240674776455377,
      -8.428593819039316,
      9.625690153762745,
      1.7982609505056462,
      1.213312418394691,
      -4.222935708490329,
      7.153159230833965,
      -6.712063570277716,
      -0.42043646232782333,
      11.060254770061926,
      10.016517101023153,
      3.9885517526145775,
      3.718663213599332,
      4.048710980984854,
      3.7628605941403737,
      0.22539880560069186,
      1.1830290175707836,
      3.319752707705493,
      15.438717010008244,
      1.535828927771943,
      9.369730161059834,
      -5.740554129113898,
      2.466441284407466,
      -2.7483441472914296,
      -5.050263412784007,
      4.241180819177411,
      5.753726082338342,
      -2.010871016609518
    ],
    [
      6.355167924238937,
      -2.552842187407222,
      5.409627555019601,
      2.172038317482691,
      0.6924401351543126,
      -7.327525498816005,
      -3.122314382542924,
      1.5607934893876367,
      0.9172568063222051,
      -2.243250384253272,
      -0.3195050180774019,
      4.288324441656601,
      0.46653917169718145,
      -5.594092944164638,
      1.1990804187105235,
      -1.166919256213101,
      -2.07491972710913,
      -1.992492891942829,
      7.93182184546618,
      1.7523561440740432,
      -8.824007341648286,
      -5.648821513706866,
      1.5358289277719286,
      12.749380648838335,
      -0.0005215861922948027,
      8.538424566848636,
      -7.988975845353554,
      -5.500002252633029,
      0.951321566071194,
      3.7279636739592172,
      -7.768471691287906,
      2.170219532414373
    ],
    [
      8.718738662315452,
      -4.973221284579945,
      -8.297751609547875,
      -5.599210232096077,
      0.9807643390472487,
      0.5967082531716772,
      14.611012877414359,
      5.369549442057938,
      16.6116034572719,
      -13.299541150473337,
      11.053446917535599,
      -23.241155340006287,
      0.6005304823261995,
      15.120319793536453,
      1.3714821096855148,
      -6.609554373359584,
      -5.171986283783055,
      -4.762853509721585,
      1.7894916200391704,
      2.428167689375435,
      3.4391733139650333,
      -15.151253889423653,
      9.369730161059872,
      -0.0005215861922848517,
      25.987424715489933,
      -10.985102749371833,
      8.519902394606651,
      -15.961340584231726,
      -0.45257547215260147,
      8.141237051104717,
      0.03354908263162115,
      -0.8106895061954001
    ],
    [
      -5.994944533397521,
      1.4694152426255491,
      22.34013568467409,
      -11.949312233703044,
      11.535733553758753,
      -4.981838361409211,
      -22.84160561197329,
      -10.86902125991407,
      -8.18620956760018,
      3.336736964692605,
      -10.113478023132268,
      13.449326612238481,
      -1.9477101822390221,
      -1.5610130315305408,
      -7.222238164511626,
      3.730196509749618,
      -1.1669478416107417,
      -1.9141951692322139,
      5.5056825716866085,
      -13.085849881631052,
      -8.151147876178964,
      -2.162929713350812,
      -5.740554129113958,
      8.538424566848583,
      -10.98510274937198,
      38.71085259799117,
      -15.10325785407387,
      15.012987179490132,
      17.76568643462066,
      -16.695868703593902,
      -13.564303403895563,
      -3.093960388961963
    ],
    [
      -7.030713462342423,
      14.475568445821207,
      -19.43987321806071,
      0.037279130872140444,
      6.915598703393732,
      8.825269091965499,
      13.609527847838747,
      8.660366146232047,
      3.8682349490064434,
      -14.850642158281802,
      9.894865099639198,
      -9.400526809863683,
      8.360189859232914,
      5.677405104231296,
      -2.616362131848066,
      -13.31335668669187,
      -0.1558841462265657,
      -1.3159192407273288,
      -12.912233112618363,
      9.610782322636027,
      -5.793810717348842,
      2.063355953136081,
      2.466441284407542,
      -7.9889758453535205,
      8.519902394606772,
      -15.103257854073963,
      32.49614866391438,
      -8.188698123396208,
      -4.5463221889926455,
      8.903940685864349,
      14.684765925473783,
      -0.1730844133316784
    ],
    [
      -26.12497701317691,
      9.789946351291176,
      8.297011201278064,
      -18.53251433817041,
      2.4681410818315315,
      11.149459642975511,
      -19.065048451178274,
      -12.880966479876946,
      -22.381659579165504,
      11.987058203942908,
      -4.764389885087018,
      12.609670895528485,
      -14.63059679057594,
      2.7632791072857428,
      -2.4822244584599615,
      29.02476451129015,
      13.839354245371554,
      12.350373773216768,
      -8.073732980335016,
      -14.352987003028389,
      10.799190440638919,
      16.87524933988546,
      -2.74834414729158,
      -5.500002252633085,
      -15.96134058423205,
      15.012987179490084,
      -8.188698123396149,
      50.931063666311346,
      13.87267504685472,
      -27.95685250834689,
      -0.12356238224498187,
      -7.401045997412888
    ],
    [
      -16.373646527196673,
      16.088595961580083,
      32.06322857739273,
      -22.3557619572405,
      7.289676664715364,
      12.98684237874909,
      -7.407175674561405,
      -12.50472099738961,
      22.113654191928227,
      0.8481259827990691,
      1.5371363839849908,
      12.041486064446293,
      0.21740568209820066,
      10.663108431357418,
      -25.02407164090457,
      0.9434431663921786,
      1.4734189205220627,
      -4.663821739158015,
      2.366048865688432,
      1.1670016000675014,
      -4.094629715297565,
      -22.5460387721638,
      -5.050263412784071,
      0.9513215660710923,
      -0.452575472152812,
      17.765686434620733,
      -4.546322188992546,
      13.872675046855003,
      36.29740801024742,
      -17.474857401506313,
      -18.905359905771668,
      -2.161289619756543
    ],
    [
      20.476611524240422,
      -0.4151810510302331,
      -18.546200865005975,
      18.188475341648868,
      -10.357025878984413,
      -2.9897031805775676,
      14.523102667861998,
      11.23292492704185,
      6.856244340727179,
      -13.781572395259419,
      6.069471923472783,
      -9.498113025504614,
      9.893313174511166,
      -1.4661621288489592,
      9.376265330664777,
      -14.921432802289422,
      0.8124504682035272,
      -2.937190979833193,
      2.388139573130448,
      19.70831345406621,
      -5.247562991098126,
      -2.6046545754147066,
      4.24118081917747,
      3.727963673959293,
      8.141237051104937,
      -16.69586870359388,
      8.903940685864239,
      -27.956852508346994,
      -17.474857401506103,
      33.33033953285655,
      7.152104516812886,
      5.007934175830085
    ],
    [
      -0.7869403891965042,
      -0.4857080602832773,
      -26.41882998234679,
      3.737057843876494,
      -2.007592215644374,
      -2.931834988955086,
      7.129760411173851,
      3.8718245803572744,
      -20.503867737989257,
      -7.198496583249152,
      0.14038926091110904,
      -8.243930958481112,
      1.9827629538666005,
      4.822206880530986,
      21.736526647068963,
      -1.132476189877236,
      5.093552711000224,
      9.124285514591834,
      -6.3165731173883,
      -0.5293329538367545,
      5.08822670230452,
      22.781468963584498,
      5.753726082338375,
      -7.768471691287851,
      0.03354908263170913,
      -13.5643034038957,
      14.684765925473757,
      -0.12356238224518001,
      -18.905359905771817,
      7.152104516813115,
      28.234139859452963,
      -6.840109584801794
    ],
    [
      4.662783322904379,
      0.8800140406461777,
      -0.2613118865196106,
      14.695704339676938,
      7.146208130898497,
      -5.029502705707275,
      5.452591197442524,
      8.53615960875948,
      8.678787245890865,
      7.106246727090964,
      7.100331990789915,
      7.88037975515629,
      -1.3960916469941722,
      -14.552833712310994,
      -18.806123819936417,
      -6.097291582287412,
      -2.0129751496299293,
      -8.801714031893033,
      -5.629785883666241,
      5.366957381402573,
      -5.008590359128444,
      0.5440397694668268,
      -2.01087101660947,
      2.1702195324143783,
      -0.8106895061952846,
      -3.09396038896194,
      -0.17308441333165275,
      -7.40104599741289,
      -2.1612896197564977,
      5.007934175830048,
      -6.840109584801814,
      22.619314365875645
    ]
  ],
  "latent_diag_var": [
    0.24125634133815765,
    0.21586623787879944,
    0.26607969403266907,
    0.24596638977527618,
    0.19063998758792877,
    0.19183720648288727,
    0.27179205417633057,
    0.25543031096458435,
    0.2618219554424286,
    0.183720201253891,
    0.2937680184841156,
    0.11747138202190399,
    0.1520303338766098,
    0.16774915158748627,
    0.24596302211284637,
    0.21818965673446655,
    0.29737743735313416,
    0.2746357023715973,
    0.29405879974365234,
    0.23375649750232697,
    0.1665130853652954,
    0.2336260825395584,
    0.30147233605384827,
    0.28725743293762207,
    0.2892043888568878,
    0.20320434868335724,
    0.24689723551273346,
    0.3027186095714569,
    0.27819475531578064,
    0.23858466744422913,
    0.2351803332567215,
    0.2657022178173065
  ]
}