{
  "component_stats": {
    "reconstruction": {
      "mean": 0.5716341733932495,
      "std": 0.15850359201431274
    },
    "weighted_feature": {
      "mean": 0.56635030089123,
      "std": 0.1564296890733634
    },
    "latent_distance": {
      "mean": 31.89868201483397,
      "std": 11.357329451311633
    },
    "density": {
      "mean": 20.934072494506836,
      "std": 6.250068664550781
    }
  },
  "feature_weights": [
    0.9682835936546326,
    0.9562498331069946,
    1.1363708972930908,
    1.1026002168655396,
    0.8875994682312012,
    0.8745076060295105,
    0.9504837393760681,
    1.0325706005096436,
    0.9716039896011353,
    0.9442277550697327,
    1.0191988945007324,
    0.9868879914283752,
    0.9473683834075928,
    1.0905842781066895,
    1.0091724395751953,
    0.9787207245826721,
    1.0604944229125977,
    1.0971975326538086,
    0.8514659404754639,
    0.9761027097702026,
    1.1516472101211548,
    1.1142151355743408,
    0.9464440941810608,
    1.0356849431991577,
    0.9229254722595215,
    1.043408751487732,
    0.8207728862762451,
    1.0430508852005005,
    0.9219112396240234,
    1.220992922782898,
    1.0922037363052368,
    0.8513947129249573,
    1.1142070293426514,
    0.8274754881858826,
    1.0622105598449707,
    0.9897619485855103
  ],
  "latent_mean": [
    0.13428376615047455,
    0.013296330347657204,
    0.24176879227161407,
    -0.008996095508337021,
    -0.41978833079338074,
    -0.15270844101905823,
    -0.2887718975543976,
    0.136801615357399,
    -0.08690956979990005,
    -0.47277018427848816,
    0.31526583433151245,
    -0.05566312000155449,
    0.1447935849428177,
    -0.04341009259223938,
    0.016942381858825684,
    0.005638372153043747,
    0.10209488868713379,
    0.09107950329780579,
    0.0024441720452159643,
    0.22739942371845245,
    -0.18981541693210602,
    0.14896748960018158,
    0.14194877445697784,
    0.2452360987663269,
    -0.53938889503479,
    -0.2040702998638153,
    -0.0950138196349144,
    0.008944527246057987,
    -0.420395165681839,
    -0.021837713196873665,
    -0.010673790238797665,
    -0.08132468909025192
  ],
  "latent_inv_cov": [
    [
      28.087367803234375,
      1.8813839512840016,
      -1.4973815684542622,
      -7.629270247193538,
      3.8227452424721786,
      5.67882537217605,
      1.6912653853256985,
      7.519025768826962,
      -2.8303962975864954,
      0.5072299202795835,
      3.818598834043737,
      -9.717319083829105,
      8.1691970628066,
      -22.515051557069455,
      -2.140337131962311,
      0.7914747066952766,
      11.953602616197829,
      0.32068022567924054,
      -3.185104696741413,
      13.2127726090658,
      7.119676170043881,
      -8.19686341156698,
      -6.161609050098046,
      -1.7420073522454627,
      -10.617864163826525,
      -10.534872972442281,
      1.0032821276158048,
      -17.59795918250386,
      4.68525949618586,
      2.7206016053611655,
      -2.5233863739957716,
      -1.7121641753269172
    ],
    [
      1.8813839512839472,
      9.476552543801217,
      -1.7526635469355814,
      -3.937079941805076,
      -8.907611102528003,
      -2.1777797987700467,
      -2.464540861418507,
      -1.6955551076917736,
      0.7641995406745913,
      2.356544517851435,
      -1.9038037348757322,
      -3.1048481795963396,
      0.6594750151633568,
      3.65945639795691,
      0.8473228578612709,
      0.8965470589829141,
      -5.825963652571872,
      4.7626422360892455,
      -6.199186648813563,
      0.6070822545581264,
      4.4355902187212095,
      3.8469715860891798,
      -2.6720117298554347,
      -1.8346200418437189,
      0.01907101429770246,
      -0.4307714116091184,
      3.5561834256087645,
      -3.1414831413274773,
      2.7900592858612137,
      2.179882536319493,
      1.5796669485725003,
      1.719062245488236
    ],
    [
      -1.4973815684542653,
      -1.7526635469355356,
      23.803858427549397,
      3.6502359356959757,
      7.232810896550086,
      -4.514604492078974,
      -3.805031247890997,
      2.499266251294505,
      2.5625051798611453,
      -0.6685861903484096,
      -3.218247485754687,
      2.3275213854231467,
      -3.35885362140245,
      4.108126921706564,
      10.027792645753642,
      1.1445264902189258,
      2.2161853764849826,
      -4.511740295210672,
      1.3745192200791114,
      -3.8742543041138853,
      -0.7806316032331921,
      2.365455377706004,
      5.965370438958257,
      -9.789469229704165,
      -3.518677511517902,
      -1.4185062630162144,
      -4.780348483777818,
      5.407134915692957,
      2.07367098420888,
      2.7025381859234328,
      -12.256702242381072,
      3.5050332376632785
    ],
    [
      -7.629270247193414,
      -3.9370799418050804,
      3.6502359356959784,
      26.92348126137664,
      19.078061892465843,
      -7.895952052943122,
      -2.570056133999814,
      -13.59371168373131,
      -5.754035595758493,
      -0.3882880731535581,
      -2.6389888750886037,
      4.231286828441302,
      -2.6463317376004976,
      8.335856284211907,
      3.3189163467048726,
      -5.286047520346005,
      5.804223029326861,
      4.082858184816018,
      -2.8554303255081006,
      11.352608162752007,
      2.7874045077248946,
      -2.382133820928777,
      5.90289155848357,
      -8.75126981410864,
      3.6425418789196935,
      -3.321782222337376,
      1.926907978058189,
      15.615443116885807,
      -0.4190023688377484,
      -4.6378011447534,
      -0.48836717291900233,
      -6.12813064611214
    ],
    [
      3.822745242472363,
      -8.907611102527978,
      7.23281089655019,
      19.078061892465858,
      47.37314847023085,
      -1.637046775023157,
      -4.141032646549194,
      -4.512579230127055,
      -11.684049202478006,
      -3.7322120696859638,
      0.269679817629879,
      10.976442138383405,
      1.5727082183690928,
      -8.781430649229687,
      -1.8109624179246144,
      -8.659390507677383,
      28.023077801165325,
      -14.805389555424643,
      15.30236840842531,
      16.395246665864168,
      -7.576282243757368,
      -14.991356538489873,
      16.065760817738344,
      -3.864595605284515,
      -0.9625209453938777,
      -8.130256267099602,
      -2.78699658461848,
      -3.797592290545382,
      -5.6736809459908555,
      -2.6144156611002947,
      -14.660299738210103,
      -11.611177213684877
    ],
    [
      5.678825372175997,
      -2.1777797987700502,
      -4.514604492078921,
      -7.895952052943129,
      -1.6370467750231237,
      15.265448232990009,
      6.726804888983058,
      9.018995870335388,
      -3.625045322307229,
      -0.15637944563180017,
      6.323139635216133,
      -2.1070703652814395,
      3.280300983080886,
      -13.41256391580897,
      -1.4425822347917894,
      3.388385878540558,
      4.9416402446962024,
      -6.343402863180656,
      2.084682822675882,
      -0.7709547409186397,
      -3.7173824956403148,
      -2.623110342992461,
      -5.131014525239498,
      6.2605305951701045,
      -0.3191019132180358,
      -1.6584318894224754,
      -1.9659122000257534,
      -6.926382378800931,
      -3.4248098190349983,
      -2.4463608248910726,
      1.6929425282369461,
      -2.780773815133593
    ],
    [
      1.6912653853256805,
      -2.4645408614185236,
      -3.805031247890969,
      -2.570056133999853,
      -4.141032646549177,
      6.726804888983091,
      20.52323788155296,
      1.1269404844004292,
      -7.591315474115866,
      -4.959632155064505,
      -1.6487901405500776,
      7.796186296336003,
      1.5810950644649686,
      -10.717502247611625,
      -2.2079380908950434,
      7.015330912319014,
      -2.3662500677140867,
      -8.48547634815217,
      -2.6438729099583607,
      3.909350258612026,
      -1.264834795035094,
      -3.526630100472197,
      -4.659760533358789,
      6.019559739225122,
      -5.060808437081801,
      0.8576221644255361,
      -5.1456550712775,
      7.149284826037798,
      -3.4952947055801102,
      4.221263806104137,
      -1.1020795863026183,
      -4.156169099602239
    ],
    [
      7.519025768826886,
      -1.6955551076917643,
      2.499266251294544,
      -13.593711683731293,
      -4.512579230127035,
      9.018995870335354,
      1.1269404844003528,
      25.31819043606452,
      4.438807067706229,
      1.6557694808755448,
      8.115843821179533,
      -1.5527442246471848,
      2.3102719807307674,
      -6.515502148636958,
      2.272850689214318,
      6.28143665987624,
      6.629568786898085,
      -10.833880047760989,
      8.160918856695725,
      -8.979603219135129,
      -8.440709527672741,
      5.166154635001141,
      -6.908693979000328,
      8.815621840507667,
      4.942766170817361,
      -3.8535666019599955,
      -8.951709416213738,
      -15.04325037575727,
      -4.1574506344473185,
      -8.917489313901843,
      1.6541298041792942,
      2.8856307188365826
    ],
    [
      -2.8303962975865353,
      0.7641995406746089,
      2.5625051798611223,
      -5.754035595758521,
      -11.684049202478088,
      -3.6250453223072387,
      -7.591315474115883,
      4.438807067706226,
      21.711120366908897,
      0.444273040214261,
      2.8074035022722805,
      -12.07819256940365,
      -3.1495189015320824,
      8.434333887715008,
      2.210187479419663,
      -0.8845211410039165,
      -9.220156325784448,
      10.358779023413295,
      1.235877740123226,
      -13.21552055557492,
      -0.8102125677926764,
      5.652536579805641,
      -5.472781443216599,
      -0.8655129252846543,
      0.3200831086177845,
      -0.8253834449838596,
      1.7226523159523597,
      -1.6189804838919142,
      9.184562023859213,
      0.7930215169329593,
      4.494438367115515,
      9.419617035289654
    ],
    [
      0.5072299202795212,
      2.3565445178514395,
      -0.6685861903484321,
      -0.3882880731535017,
      -3.732212069685947,
      -0.15637944563183773,
      -4.959632155064509,
      1.6557694808754633,
      0.44427304021423436,
      11.953706584679043,
      1.1958047023912937,
      -5.130986678292278,
      0.8227608689919618,
      3.6784484095469434,
      0.7269230624986474,
      -1.9062283543747471,
      5.369436412506984,
      13.38013024201405,
      -1.5611752454570125,
      -1.1519123933673543,
      2.7976997167178217,
      11.680544310098325,
      2.925831249379488,
      -1.9822611309927267,
      8.94310815256459,
      -0.8642939647473444,
      4.285860673135494,
      -3.9552002181392907,
      2.132094430087443,
      -2.087417925472647,
      2.8433632332782808,
      1.56356606337501
    ],
    [
      3.818598834043705,
      -1.903803734875728,
      -3.218247485754654,
      -2.638988875088605,
      0.26967981762987625,
      6.323139635216127,
      -1.6487901405500889,
      8.115843821179542,
      2.807403502272278,
      1.1958047023913199,
      13.255850965786077,
      -7.16293407342105,
      1.777005112071003,
      -3.9177305113272904,
      2.7980637368616463,
      -0.12262072964958241,
      3.673648356597464,
      -2.0724815572848128,
      2.1334531606331657,
      -2.023139208670594,
      -4.0008375529771,
      -1.4275525923713281,
      -8.188062296762405,
      3.6045172705290995,
      4.700181794287788,
      -8.02831880700361,
      -1.3711603675706125,
      -5.831717509474714,
      -0.5493311304509658,
      -8.919184141323285,
      7.10212581232682,
      0.019764888626731526
    ],
    [
      -9.717319083829057,
      -3.104848179596395,
      2.327521385423194,
      4.231286828441402,
      10.976442138383616,
      -2.1070703652814666,
      7.796186296335974,
      -1.5527442246472003,
      -12.078192569403651,
      -5.130986678292323,
      -7.162934073421068,
      30.21132510241453,
      -3.736912494947587,
      8.194316830925752,
      -4.505126503047593,
      3.151824417769509,
      -2.078247603332978,
      -23.81084111863052,
      7.725805473485288,
      1.0969573136458968,
      -11.683033180175883,
      -4.455319432501321,
      11.040917571223744,
      6.825186991042047,
      0.6932789767136405,
      10.769820466357626,
      -9.25822970133089,
      7.606978519761575,
      -15.67616634432703,
      0.7676484322622148,
      -11.20414028479546,
      -4.853176373754815
    ],
    [
      8.169197062806608,
      0.6594750151633755,
      -3.358853621402447,
      -2.6463317376005415,
      1.572708218369044,
      3.2803009830809025,
      1.5810950644649833,
      2.310271980730785,
      -3.1495189015320726,
      0.8227608689919688,
      1.777005112071012,
      -3.736912494947595,
      8.856729669682597,
      -9.032832283149828,
      -0.6412518607371013,
      -0.2879639081878411,
      6.727060909319551,
      1.928398560649019,
      -0.4522444015156521,
      5.36945552220702,
      1.7450145053191626,
      -1.3281957501489257,
      -1.6406733968740919,
      0.1988623826512416,
      -0.09892859231880624,
      -4.88987772664679,
      1.428100944005247,
      -6.483931241059936,
      2.538053216140244,
      0.1252846508811841,
      1.2621607320490797,
      -0.7874991038173897
    ],
    [
      -22.515051557069505,
      3.65945639795686,
      4.108126921706507,
      8.335856284212072,
      -8.781430649229526,
      -13.412563915809052,
      -10.717502247611622,
      -6.515502148637103,
      8.434333887714944,
      3.6784484095468657,
      -3.9177305113273495,
      8.194316830925848,
      -9.032832283149837,
      40.84115581785244,
      5.928745715820296,
      -2.4037551490227758,
      -17.33303182579599,
      3.9382977511851758,
      -1.9766008328034237,
      -16.014127284701846,
      -7.70718103166563,
      15.230487432599034,
      3.2201138683452926,
      -2.0268575866641863,
      16.448290038045304,
      5.7691729237749465,
      2.1267178801365154,
      13.565805658801754,
      -3.823716063910579,
      -6.616111801378397,
      4.037143058563297,
      3.759700882143221
    ],
    [
      -2.1403371319623554,
      0.8473228578613015,
      10.027792645753628,
      3.3189163467048823,
      -1.8109624179246944,
      -1.442582234791834,
      -2.2079380908950443,
      2.272850689214272,
      2.210187479419662,
      0.7269230624986552,
      2.7980637368616144,
      -4.505126503047573,
      -0.6412518607371152,
      5.92874571582038,
      15.777443935286291,
      1.0534560986895831,
      -3.4728169704433607,
      -1.2564676580485252,
      -4.330580564993847,
      -4.832617112199322,
      -1.0731080509718327,
      4.324364895885207,
      -4.678238840945374,
      -6.55375395692298,
      3.902349932979428,
      -7.029795934304291,
      -0.08549556280759409,
      3.775940682371894,
      3.306269146605109,
      -4.6432253553640495,
      1.2247222642023121,
      0.6643241024406275
    ],
    [
      0.7914747066952378,
      0.896547058982909,
      1.1445264902189063,
      -5.286047520346032,
      -8.659390507677402,
      3.3883858785405705,
      7.0153309123189835,
      6.281436659876286,
      -0.8845211410038998,
      -1.9062283543747136,
      -0.12262072964956747,
      3.1518244177695207,
      -0.2879639081878522,
      -2.4037551490227287,
      1.0534560986895667,
      15.260544768988368,
      -4.874587627450481,
      -5.4151848620173935,
      -3.3671208273978332,
      -1.095110817504617,
      3.351503883641845,
      6.729617098094822,
      -6.8264053786131305,
      2.688638033328658,
      -0.8309378853066907,
      4.169827812030932,
      -7.801813798857714,
      4.577637769110317,
      -0.6304502180515369,
      -0.4189598817557052,
      1.584779891797519,
      3.027845467001393
    ],
    [
      11.953602616197903,
      -5.825963652571833,
      2.216185376485009,
      5.80422302932685,
      28.023077801165275,
      4.941640244696177,
      -2.366250067714126,
      6.629568786898054,
      -9.220156325784382,
      5.369436412507008,
      3.673648356597481,
      -2.078247603333133,
      6.727060909319589,
      -17.333031825796017,
      -3.4728169704432936,
      -4.874587627450498,
      41.08096703751353,
      6.007752027169481,
      11.061571322160356,
      9.50888602565219,
      -0.916790616135805,
      3.4260237762498043,
      13.760151663794026,
      -0.2749839059508714,
      9.891250695877973,
      -11.957247279999285,
      1.0572002855498293,
      -12.72746783988693,
      3.279740274322383,
      -0.463542941566277,
      -6.973826058747206,
      -7.367603262295537
    ],
    [
      0.32068022567918403,
      4.762642236089268,
      -4.511740295210813,
      4.082858184815965,
      -14.8053895554248,
      -6.3434028631806285,
      -8.485476348152098,
      -10.833880047761053,
      10.358779023413268,
      13.380130242014015,
      -2.072481557284803,
      -23.810841118630478,
      1.9283985606490306,
      3.9382977511852015,
      -1.2564676580485905,
      -5.415184862017394,
      6.007752027169324,
      53.53443253211837,
      -15.307994211229861,
      0.4460539487032056,
      21.512708171132754,
      23.32575399602227,
      2.8056258222444845,
      -10.628864496381128,
      9.948016991900472,
      -4.094561168511737,
      16.521182422620182,
      5.826412050431357,
      22.403612561729602,
      8.057917055000786,
      11.12405934685448,
      8.224420162058584
    ],
    [
      -3.185104696741362,
      -6.199186648813569,
      1.3745192200791978,
      -2.855430325508038,
      15.302368408425412,
      2.0846828226758314,
      -2.6438729099584277,
      8.160918856695702,
      1.2358777401232472,
      -1.5611752454569858,
      2.1334531606331555,
      7.7258054734852095,
      -0.4522444015156365,
      -1.9766008328034415,
      -4.330580564993786,
      -3.367120827397878,
      11.06157132216044,
      -15.307994211229788,
      24.070722011992522,
      -7.118991342180382,
      -16.402114242159463,
      -5.060056633225583,
      7.8990370472662175,
      7.341645922735405,
      3.5970137270407694,
      0.8803673239625835,
      -5.749240913428662,
      -10.436829999682153,
      -7.178680096083999,
      -3.359367735538504,
      -6.870121767071212,
      -1.9807006236949234
    ],
    [
      13.212772609065905,
      0.6070822545581414,
      -3.87425430411388,
      11.352608162751919,
      16.39524666586409,
      -0.770954740918556,
      3.9093502586120943,
      -8.979603219135052,
      -13.215520555574896,
      -1.1519123933673634,
      -2.0231392086705537,
      1.0969573136458293,
      5.369455522207049,
      -16.01412728470197,
      -4.8326171121993085,
      -1.0951108175045663,
      9.508886025652192,
      0.4460539487031972,
      -7.118991342180415,
      33.02335745047923,
      15.208770656790186,
      -11.036332704563304,
      -0.006264154450918367,
      -7.131664251092869,
      -12.709991908785936,
      -2.0881654534368703,
      -1.4437204759330209,
      0.9778957712673253,
      -0.7109866206227731,
      -0.6964730826591167,
      -2.410672661719101,
      -3.4574384637705027
    ],
    [
      7.119676170043896,
      4.435590218721231,
      -0.7806316032332888,
      2.787404507724796,
      -7.576282243757513,
      -3.7173824956402366,
      -1.2648347950350265,
      -8.4407095276727,
      -0.8102125677926878,
      2.7976997167178217,
      -4.000837552977062,
      -11.683033180175876,
      1.7450145053191781,
      -7.707181031665662,
      -1.0731080509718796,
      3.351503883641877,
      -0.9167906161358801,
      21.512708171132733,
      -16.402114242159495,
      15.20877065679018,
      28.33837216477557,
      6.142909619026575,
      -2.4134661490634106,
      -9.803691355918977,
      -8.41855492181201,
      4.298480084950708,
      3.433919879521661,
      6.569117534428423,
      11.791113613125168,
      5.047266114333988,
      5.191594739956713,
      6.256783689309213
    ],
    [
      -8.196863411567083,
      3.846971586089168,
      2.3654553777058935,
      -2.382133820928695,
      -14.991356538489834,
      -2.623110342992515,
      -3.526630100472227,
      5.166154635001019,
      5.652536579805611,
      11.680544310098316,
      -1.427552592371352,
      -4.45531943250126,
      -1.3281957501489257,
      15.230487432599135,
      4.324364895885136,
      6.729617098094754,
      3.4260237762497825,
      23.32575399602233,
      -5.0600566332255825,
      -11.036332704563275,
      6.142909619026581,
      37.110259671098376,
      2.173037249737691,
      -0.7953551523849152,
      21.078871519376754,
      3.229348933188269,
      -0.10274710136748343,
      5.654232491562309,
      8.324162233300445,
      -1.2865927948833622,
      6.593513437744265,
      8.692400227033072
    ],
    [
      -6.161609050098001,
      -2.672011729855438,
      5.965370438958262,
      5.902891558483646,
      16.065760817738408,
      -5.131014525239548,
      -4.659760533358814,
      -6.908693979000403,
      -5.4727814432165784,
      2.9258312493794576,
      -8.188062296762421,
      11.040917571223671,
      -1.6406733968740703,
      3.220113868345238,
      -4.678238840945367,
      -6.826405378613148,
      13.760151663794069,
      2.8056258222445627,
      7.899037047266178,
      -0.006264154450846269,
      -2.4134661490633333,
      2.1730372497376496,
      25.15236408090075,
      -1.7984073291534832,
      2.780757351109349,
      7.51474263435687,
      3.27731238118515,
      2.023467819559605,
      -1.1005662065957127,
      8.906277724190536,
      -13.146946134491163,
      -2.0078943226017056
    ],
    [
      -1.7420073522454873,
      -1.8346200418437597,
      -9.78946922970412,
      -8.751269814108598,
      -3.864595605284384,
      6.260530595170104,
      6.019559739225081,
      8.815621840507696,
      -0.8655129252846564,
      -1.9822611309927165,
      3.604517270529106,
      6.825186991042077,
      0.1988623826512318,
      -2.026857586664172,
      -6.553753956922966,
      2.688638033328624,
      -0.27498390595079925,
      -10.6288644963812,
      7.341645922735499,
      -7.131664251092888,
      -9.803691355919053,
      -0.7953551523849364,
      -1.7984073291534255,
      17.975303989208403,
      5.213519024481976,
      2.970944593616883,
      -3.9403661412312316,
      -5.7986713470073505,
      -7.602407165254292,
      -3.3766490463468717,
      3.4559092171152748,
      -1.5611706416570614
    ],
    [
      -10.617864163826587,
      0.019071014297663235,
      -3.5186775115179207,
      3.6425418789198396,
      -0.9625209453937192,
      -0.31910191321812365,
      -5.060808437081834,
      4.942766170817222,
      0.3200831086177579,
      8.943108152564545,
      4.70018179428775,
      0.693278976713696,
      -0.09892859231880448,
      16.448290038045354,
      3.9023499329794005,
      -0.830937885306763,
      9.891250695877984,
      9.948016991900476,
      3.597013727040789,
      -12.709991908785868,
      -8.418554921812008,
      21.07887151937668,
      2.7807573511094033,
      5.213519024481943,
      32.010769800301304,
      -7.225075778642864,
      3.099929561874393,
      -1.77596362884179,
      -1.1659739970434804,
      -10.302309268951825,
      9.940321559833436,
      -3.3840631297655026
    ],
    [
      -10.534872972442264,
      -0.43077141160915494,
      -1.4185062630162306,
      -3.32178222233732,
      -8.13025626709946,
      -1.6584318894224677,
      0.8576221644255116,
      -3.853566601960002,
      -0.8253834449838997,
      -0.864293964747351,
      -8.028318807003604,
      10.769820466357654,
      -4.889877726646779,
      5.769172923774896,
      -7.029795934304327,
      4.169827812030896,
      -11.957247279999178,
      -4.094561168511794,
      0.8803673239626534,
      -2.088165453436809,
      4.298480084950681,
      3.2293489331882177,
      7.51474263435692,
      2.970944593616886,
      -7.2250757786428625,
      25.87289095849667,
      -5.115896063805808,
      9.597561030272377,
      -5.298210117657485,
      4.385066803128233,
      -3.334031381869845,
      7.362587123983263
    ],
    [
      1.0032821276157766,
      3.5561834256087765,
      -4.780348483777852,
      1.926907978058182,
      -2.7869965846185365,
      -1.9659122000257563,
      -5.145655071277461,
      -8.951709416213777,
      1.722652315952357,
      4.285860673135462,
      -1.3711603675706197,
      -9.25822970133087,
      1.4281009440052392,
      2.1267178801365296,
      -0.08549556280760595,
      -7.801813798857696,
      1.057200285549743,
      16.521182422620168,
      -5.749240913428701,
      -1.4437204759330187,
      3.433919879521676,
      -0.10274710136752109,
      3.277312381185111,
      -3.940366141231213,
      3.099929561874371,
      -5.115896063805792,
      17.82178239201561,
      -3.782920132987473,
      8.03130148688023,
      5.426364400025502,
      3.2954008142547857,
      -3.991509940027702
    ],
    [
      -17.59795918250383,
      -3.1414831413275093,
      5.4071349156929145,
      15.615443116885807,
      -3.797592290545367,
      -6.9263823788009145,
      7.149284826037832,
      -15.043250375757262,
      -1.6189804838919115,
      -3.955200218139351,
      -5.831717509474717,
      7.606978519761581,
      -6.483931241059923,
      13.56580565880165,
      3.7759406823718287,
      4.577637769110346,
      -12.727467839886907,
      5.826412050431308,
      -10.436829999682127,
      0.9778957712673741,
      6.569117534428445,
      5.654232491562249,
      2.023467819559577,
      -5.798671347007317,
      -1.775963628841871,
      9.597561030272418,
      -3.7829201329875235,
      36.06107173260467,
      2.261442637928493,
      2.8355942329722583,
      0.28665103427427985,
      3.5738011327374357
    ],
    [
      4.685259496185863,
      2.790059285861265,
      2.0736709842088032,
      -0.41900236883786224,
      -5.67368094599107,
      -3.4248098190349667,
      -3.495294705580074,
      -4.157450634447297,
      9.184562023859234,
      2.1320944300874562,
      -0.5493311304509473,
      -15.676166344327067,
      2.5380532161402507,
      -3.8237160639105734,
      3.306269146605091,
      -0.6304502180515003,
      3.279740274322246,
      22.40361256172965,
      -7.1786800960840775,
      -0.7109866206228005,
      11.79111361312522,
      8.324162233300475,
      -1.100566206595812,
      -7.602407165254252,
      -1.165973997043491,
      -5.2982101176574465,
      8.03130148688023,
      2.2614426379284827,
      22.236209202869855,
      9.408256096293977,
      2.198917433368441,
      5.8819233613447
    ],
    [
      2.7206016053611695,
      2.179882536319518,
      2.702538185923405,
      -4.637801144753475,
      -2.614415661100408,
      -2.446360824891052,
      4.221263806104147,
      -8.917489313901804,
      0.7930215169329988,
      -2.087417925472652,
      -8.919184141323273,
      0.7676484322621776,
      0.12528465088117596,
      -6.616111801378411,
      -4.643225355364062,
      -0.4189598817556627,
      -0.46354294156632236,
      8.057917055000804,
      -3.3593677355385254,
      -0.6964730826591572,
      5.047266114334012,
      -1.2865927948833351,
      8.906277724190497,
      -3.3766490463468353,
      -10.302309268951834,
      4.38506680312826,
      5.426364400025491,
      2.8355942329722463,
      9.40825609629399,
      24.74682327834995,
      -12.065467843092385,
      1.2227784178121814
    ],
    [
      -2.523386373995816,
      1.5796669485724726,
      -12.256702242381104,
      -0.488367172918989,
      -14.66029973821006,
      1.6929425282369712,
      -1.1020795863025852,
      1.6541298041792887,
      4.494438367115466,
      2.8433632332782652,
      7.102125812326829,
      -11.204140284795368,
      1.2621607320490742,
      4.037143058563316,
      1.224722264202281,
      1.5847798917974987,
      -6.9738260587472425,
      11.124059346854372,
      -6.8701217670711685,
      -2.410672661719086,
      5.191594739956649,
      6.593513437744198,
      -13.146946134491165,
      3.4559092171153174,
      9.94032155983344,
      -3.334031381869808,
      3.2954008142547497,
      0.28665103427428984,
      2.198917433368348,
      -12.065467843092426,
      23.53914691972778,
      1.8143015583838458
    ],
    [
      -1.71216417532694,
      1.7190622454882425,
      3.5050332376632385,
      -6.1281306461121625,
      -11.611177213684915,
      -2.780773815133579,
      -4.15616909960224,
      2.8856307188365897,
      9.419617035289633,
      1.5635660633750346,
      0.019764888626737503,
      -4.853176373754792,
      -0.7874991038173909,
      3.7597008821432523,
      0.6643241024406082,
      3.027845467001373,
      -7.367603262295549,
      8.224420162058578,
      -1.9807006236949178,
      -3.457438463770508,
      6.256783689309194,
      8.692400227033094,
      -2.007894322601703,
      -1.561170641657037,
      -3.384063129765468,
      7.362587123983293,
      -3.9915099400277048,
      3.5738011327374153,
      5.881923361344654,
      1.222778417812145,
      1.814301558383868,
      16.09951933382994
    ]
  ],
  "latent_diag_var": [
    0.17534005641937256,
    0.2537039518356323,
    0.19270288944244385,
    0.21357080340385437,
    0.20567359030246735,
    0.21762995421886444,
    0.20802050828933716,
    0.24913303554058075,
    0.21952639520168304,
    0.2525520324707031,
    0.2496155947446823,
    0.23593096435070038,
    0.22700725495815277,
    0.20638416707515717,
    0.23552483320236206,
    0.18260741233825684,
    0.23368477821350098,
    0.1991877257823944,
    0.20169757306575775,
    0.21482087671756744,
    0.2267339825630188,
    0.19334542751312256,
    0.25583767890930176,
    0.2028317153453827,
    0.24630393087863922,
    0.20822294056415558,
    0.2416151762008667,
    0.1926119327545166,
    0.20466960966587067,
    0.18641525506973267,
    0.21375533938407898,
    0.22555400431156158
  ]
}