{
  "component_stats": {
    "reconstruction": {
      "mean": 0.5761886239051819,
      "std": 0.15909230709075928
    },
    "weighted_feature": {
      "mean": 0.5687843473747477,
      "std": 0.15637310823952053
    },
    "latent_distance": {
      "mean": 31.873563061857908,
      "std": 12.90452602990814
    },
    "density": {
      "mean": 21.972951889038086,
      "std": 7.476550102233887
    }
  },
  "feature_weights": [
    1.0627179145812988,
    0.9933776259422302,
    1.1086839437484741,
    0.9686479568481445,
    0.9871096014976501,
    0.9307811260223389,
    0.9397911429405212,
    1.116459846496582,
    1.1107194423675537,
    0.9480443596839905,
    0.9434058666229248,
    1.1247450113296509,
    1.1371253728866577,
    1.1963361501693726,
    1.0513739585876465,
    0.9954895377159119,
    0.9050595164299011,
    0.9170293807983398,
    1.1523971557617188,
    0.8533501625061035,
    0.8509560823440552,
    1.0098488330841064,
    1.1086279153823853,
    0.9767184853553772,
    1.0543454885482788,
    0.9615046381950378,
    0.9653600454330444,
    0.8775351643562317,
    0.9376870393753052,
    1.1340898275375366,
    1.2568095922470093,
    0.7370619177818298,
    0.9497625827789307,
    0.8989492654800415,
    0.8083186745643616,
    1.0297775268554688
  ],
  "latent_mean": [
    -0.4041418731212616,
    -0.19282874464988708,
    -0.18002048134803772,
    0.12815514206886292,
    0.11015170812606812,
    -0.2731603682041168,
    -0.006278226152062416,
    0.22989507019519806,
    0.1951128989458084,
    0.6203565001487732,
    0.15772877633571625,
    0.14661598205566406,
    0.2454090565443039,
    -0.5179693102836609,
    -0.12771953642368317,
    0.33132296800613403,
    -0.12423155456781387,
    0.16080231964588165,
    0.09804221987724304,
    -0.33674904704093933,
    0.031545352190732956,
    0.10443703830242157,
    -0.1840004324913025,
    0.22800201177597046,
    0.5080568790435791,
    -0.03343658521771431,
    -0.0614452101290226,
    -0.11598477512598038,
    -0.14697866141796112,
    -0.07796746492385864,
    -0.1420198529958725,
    -0.3183209002017975
  ],
  "latent_inv_cov": [
    [
      35.435631694155816,
      16.230109395296047,
      11.294590405526373,
      -2.568510025400759,
      -5.544834789824475,
      7.122009467157679,
      -6.313108536534297,
      -18.724920582354816,
      0.9757946911728379,
      2.0391990792291654,
      -12.330207262096106,
      -4.83061506808972,
      -11.700356627200897,
      -25.914301831448128,
      4.099844224118253,
      -3.491574665787578,
      17.756107807969155,
      -7.445961444088513,
      -12.062357791364981,
      -13.856869520402709,
      -6.882824807330678,
      1.7212693554166063,
      1.6998499088650123,
      1.3032844371840684,
      18.623429223468797,
      4.41272028670243,
      -3.0511413693601597,
      -4.689329748068041,
      15.763181187656961,
      -3.2425150031435193,
      -6.820002070400753,
      -11.15752162934372
    ],
    [
      16.230109395296054,
      31.652757928301746,
      13.865065925169834,
      3.6481674467615246,
      2.872319496653753,
      3.015527463287616,
      -2.8248334239582795,
      -17.17035563433403,
      11.620718381156138,
      3.467415081621826,
      -15.296099229083639,
      -16.492302764192964,
      -1.6445553877488726,
      -20.002127932958928,
      2.1600206312574532,
      -17.61338399954733,
      13.772475090153504,
      0.481693395304772,
      -11.551560840299045,
      -17.833766548361023,
      1.5692164234700698,
      0.698767800879919,
      3.550469165408941,
      14.597159406645202,
      12.556271785178533,
      4.782993686658196,
      -8.853240736583492,
      3.3304213317737448,
      9.288122856448943,
      -5.28221221358795,
      -9.22822267069988,
      -10.338672652407208
    ],
    [
      11.294590405526218,
      13.865065925169684,
      36.27755196929029,
      16.668450901190496,
      0.7463906878091773,
      -2.4941640847598623,
      -2.023110009135824,
      -16.69426234871565,
      13.739559496797042,
      8.293506390903687,
      -11.795674219966655,
      -12.032044506500434,
      -20.727402471138625,
      -8.716888710960678,
      0.2837029759775254,
      -14.763573593481826,
      25.356822200304013,
      -8.505496146339683,
      -7.215630294827521,
      -25.69883388098637,
      -5.359136504091715,
      -6.6779796439424945,
      -17.699879735452278,
      -4.251555060579048,
      0.5826496016268864,
      19.024245525648634,
      -8.598144014925474,
      -3.393632339737074,
      12.678662315062116,
      -7.85236694100748,
      8.845435174796,
      -14.083866797232542
    ],
    [
      -2.568510025400834,
      3.6481674467614607,
      16.668450901190436,
      26.834974264739646,
      0.574122844730402,
      2.3864854195744494,
      -7.23630781053478,
      -9.236012574678904,
      -8.586482468357266,
      4.307380864327205,
      -0.30928009145327545,
      4.508926762862173,
      -6.89839915221032,
      -10.8683757569408,
      -6.893935436111985,
      -2.016239283004654,
      15.875506127352383,
      -1.7723931015408194,
      5.433278377468879,
      -7.416639319658368,
      8.142656233622034,
      -3.9829442488233364,
      -9.303673444255121,
      -11.171770251539293,
      -12.30190607054137,
      6.271727371837246,
      0.011571665748901,
      -8.170596856465373,
      4.880651911673356,
      -0.2309409975466735,
      2.2989914126757145,
      6.056602591450028
    ],
    [
      -5.5448347898243115,
      2.8723194966538492,
      0.7463906878092308,
      0.57412284473041,
      24.211743962600906,
      4.5025811358260395,
      -2.7819611446693977,
      -1.2380502626985725,
      -5.403987360323642,
      11.751349060613782,
      1.7309915786771657,
      -6.921174827217642,
      4.82706860062713,
      7.244701748714287,
      -15.020623340721464,
      -1.1394460590026871,
      7.052520120263213,
      5.333520634831148,
      -8.913448918889536,
      -5.114773021355444,
      -6.63277486585887,
      12.57113091330409,
      -1.378442972025336,
      4.664877932417537,
      -8.683464275731671,
      -1.1657020112480594,
      -1.6295867080834459,
      2.2413566446107853,
      8.66726783884877,
      -3.7835969364382427,
      -10.079578898056802,
      0.8510442465031314
    ],
    [
      7.1220094671577385,
      3.015527463287666,
      -2.4941640847598303,
      2.386485419574446,
      4.502581135825926,
      30.28589560011539,
      -5.738613327358682,
      0.5845941362023175,
      -11.236303254680573,
      -1.8625115253744666,
      -9.743396500357235,
      19.657349298655603,
      2.9259813154306187,
      -17.818673414139088,
      -6.725595593087991,
      13.931177900170182,
      3.0024709084613592,
      -9.48550234031977,
      3.2450725947764116,
      1.9664046235148729,
      5.07308193168319,
      20.89411244099174,
      10.482994565429252,
      -6.6035395086898845,
      -11.79887599831698,
      -9.292844930279017,
      8.898259773069714,
      0.8303129943819764,
      7.804450577403328,
      8.821156426099636,
      -13.543352844304696,
      8.855683596307038
    ],
    [
      -6.313108536534274,
      -2.824833423958285,
      -2.023110009135865,
      -7.236307810534806,
      -2.7819611446693524,
      -5.73861332735875,
      28.32338212787409,
      14.763116500782626,
      17.38037138376676,
      -3.7705589686170544,
      5.295901755927197,
      11.2793799177046,
      5.5221092157345435,
      17.088109261074358,
      -0.5763092871719722,
      2.131170171354597,
      -14.546576023291436,
      1.7728332448007331,
      3.716339163235783,
      1.951758341555858,
      -0.6680139339489272,
      0.521130025521056,
      4.600434811264338,
      18.64168267816685,
      -7.366463333970706,
      -8.114680940153704,
      2.2118014963944277,
      14.086358582402704,
      -7.330426082730073,
      0.791958284320264,
      13.237020526700768,
      -0.7537811026975011
    ],
    [
      -18.7249205823548,
      -17.170355634334044,
      -16.694262348715817,
      -9.236012574678977,
      -1.2380502626984888,
      0.5845941362023412,
      14.763116500782655,
      31.027698660940597,
      5.318531655857736,
      -4.041907393452285,
      12.373374503042934,
      22.8618726020295,
      8.100991315979687,
      24.01034060926998,
      -0.5387244116730473,
      12.648081176629574,
      -22.641653217957018,
      -3.1878639024339095,
      10.991094516421562,
      15.332317159914899,
      3.61887070104717,
      9.192703513050635,
      10.216310312209739,
      4.1849542570238345,
      -12.686093392080828,
      -11.377338080122623,
      6.557661212984897,
      10.732392669432082,
      -16.290556623514696,
      10.828703135959513,
      11.64043355670205,
      11.806244441557038
    ],
    [
      0.975794691172701,
      11.620718381156026,
      13.739559496797064,
      -8.58648246835723,
      -5.4039873603236295,
      -11.2363032546807,
      17.380371383766843,
      5.318531655857837,
      51.87601994896801,
      -1.6872281367769983,
      -7.442700318878776,
      -13.505126951323835,
      -7.235403989915541,
      9.278214747108287,
      11.91585078385099,
      -15.720954417857929,
      -1.9804073662535606,
      -10.463445954415935,
      -1.9656961376955961,
      -16.410805930473845,
      -11.323680666485222,
      -2.470621367993678,
      -2.722161120659341,
      17.781027624990532,
      4.472281783100551,
      8.96754873250473,
      -6.26982674396211,
      18.556237890402475,
      -1.6036051290087858,
      2.9604405953456485,
      20.303838781710876,
      -23.25911363392591
    ],
    [
      2.0391990792291725,
      3.4674150816217923,
      8.293506390903671,
      4.307380864327249,
      11.75134906061376,
      -1.862511525374372,
      -3.770558968617132,
      -4.0419073934522824,
      -1.6872281367771018,
      24.873396904652175,
      2.109274711816031,
      -6.709366468107363,
      -9.094488959731926,
      9.497574144710635,
      -11.50103829238813,
      -7.01501530521459,
      11.40771081214903,
      -3.136910309724835,
      -13.507742190196993,
      -4.871815707837203,
      -9.74205664617019,
      6.638723533382794,
      -4.0649467532838575,
      -5.262247329927803,
      0.5095072814758477,
      4.119314660403055,
      -6.135737791092117,
      -1.8234420801437436,
      8.005651671846922,
      -9.448815232893223,
      -1.2698629657686866,
      0.30305490699488313
    ],
    [
      -12.330207262096037,
      -15.296099229083605,
      -11.795674219966735,
      -0.3092800914533143,
      1.7309915786772487,
      -9.743396500357171,
      5.295901755927137,
      12.373374503042863,
      -7.442700318878893,
      2.1092747118160453,
      24.84045118550153,
      9.50303957091253,
      7.467672572731653,
      14.420890841706234,
      -4.63813395685017,
      5.832651271460782,
      -7.790552009723961,
      7.794655580246008,
      4.70788862250431,
      10.819367974404514,
      -2.780252594733136,
      -1.0691990698397482,
      0.4979548252832237,
      -1.122204319182583,
      -9.978836623208505,
      -4.3389080666356845,
      1.4469423829001733,
      -2.210721202146215,
      -4.004279517076563,
      3.42504207475129,
      9.000535455302686,
      11.319927937788258
    ],
    [
      -4.830615068089795,
      -16.492302764193028,
      -12.032044506500666,
      4.508926762862113,
      -6.9211748272176745,
      19.657349298655625,
      11.279379917704697,
      22.861872602029557,
      -13.505126951323891,
      -6.709366468107497,
      9.503039570912609,
      63.573561152361336,
      5.530680716546887,
      3.669672902932037,
      0.7308332791121968,
      36.0821611383585,
      -17.659834251552002,
      -13.536036312107447,
      14.609567285488723,
      19.544996652596193,
      21.529442764604088,
      12.931911169694661,
      20.869094434771117,
      -12.870813256735925,
      -17.627297848677937,
      -11.770885381783659,
      20.224493322746437,
      -1.8568384443219563,
      -5.863612357018608,
      19.73093777110245,
      3.0946034002897735,
      16.917863354205885
    ],
    [
      -11.700356627200652,
      -1.6445553877486474,
      -20.727402471138536,
      -6.898399152210353,
      4.827068600627172,
      2.9259813154306347,
      5.5221092157344875,
      8.100991315979465,
      -7.235403989915524,
      -9.094488959731926,
      7.467672572731543,
      5.530680716546606,
      43.860671779787324,
      -0.2976964861377525,
      1.9538817339417152,
      -3.1030063446627736,
      -14.478441291003525,
      19.529377778523536,
      1.4785108759706542,
      15.204651089081858,
      5.339193952452473,
      3.4146982986006056,
      23.313781817399633,
      16.782535033603793,
      -12.470807233965184,
      -8.2582670095887,
      4.195366231334335,
      1.684718038622893,
      -1.728036692295154,
      0.6592204029691818,
      -9.923950863681304,
      4.743456130899403
    ],
    [
      -25.91430183144817,
      -20.002127932959013,
      -8.716888710960912,
      -10.868375756940873,
      7.244701748714459,
      -17.818673414138996,
      17.08810926107433,
      24.010340609270045,
      9.278214747108022,
      9.497574144710693,
      14.420890841706363,
      3.6696729029321125,
      -0.29769648613747,
      51.423418513020785,
      -2.722302937086673,
      2.6549486089804444,
      -21.13309206424288,
      3.379241713704365,
      -0.22137496712951124,
      10.610497716077486,
      -4.8770551338862616,
      -3.3744098815089716,
      -3.214607839770232,
      4.201092010047138,
      -4.2193032391292995,
      -0.83906640383185,
      -1.2689819784551726,
      9.104124830276703,
      -17.385400939828234,
      -5.341984385149977,
      15.134125331005944,
      2.167341840878891
    ],
    [
      4.099844224118099,
      2.160020631257374,
      0.28370297597750077,
      -6.893935436111952,
      -15.020623340721452,
      -6.725595593088031,
      -0.5763092871719163,
      -0.5387244116729486,
      11.915850783850985,
      -11.501038292388156,
      -4.638133956850084,
      0.7308332791122831,
      1.953881733941767,
      -2.7223029370865413,
      31.202835503719115,
      -3.0220358078062537,
      -8.53904141684188,
      -3.6266517444393727,
      -1.165927790670446,
      0.7145593948134809,
      6.3655521663547825,
      -15.413359307188086,
      5.638927393249947,
      -5.866753674551451,
      15.247761767405104,
      17.850359225987003,
      -2.200549816537732,
      -6.034986324743993,
      -3.130782759136854,
      1.0560163037175927,
      6.9439815302232075,
      -15.581633919213866
    ],
    [
      -3.491574665787598,
      -17.613383999547327,
      -14.763573593481926,
      -2.016239283004682,
      -1.1394460590027078,
      13.931177900170217,
      2.1311701713546567,
      12.648081176629576,
      -15.720954417857898,
      -7.015015305214678,
      5.832651271460783,
      36.08216113835847,
      -3.103006344662605,
      2.65494860898035,
      -3.0220358078062795,
      39.782119028642434,
      -13.650653633084401,
      -10.999463107251394,
      11.791326543477808,
      16.81241971222543,
      12.339993741760095,
      9.53420075001933,
      6.3822153800056025,
      -15.291701514468429,
      -7.176576574791555,
      -12.591780183483573,
      18.301854986555494,
      -0.21766340839380433,
      -3.214996391512565,
      15.771157094946794,
      -5.196560988773333,
      11.321964934151474
    ],
    [
      17.75610780796917,
      13.772475090153497,
      25.35682220030413,
      15.875506127352441,
      7.052520120263105,
      3.002470908461365,
      -14.546576023291466,
      -22.641653217957003,
      -1.9804073662534891,
      11.407710812149022,
      -7.7905520097240295,
      -17.659834251551878,
      -14.478441291003731,
      -21.133092064242838,
      -8.539041416841778,
      -13.650653633084348,
      38.02681545603166,
      -3.272080184800436,
      -10.518191359168508,
      -24.137171253491847,
      -12.791773064613638,
      2.5055711661229334,
      -15.361290122612214,
      -5.029926692583362,
      -0.853866085965407,
      14.61369203793863,
      -8.290892259353267,
      -9.241305853224878,
      20.381228540865827,
      -6.082082241333655,
      -1.8618075252530337,
      -7.233007558328632
    ],
    [
      -7.445961444088345,
      0.48169339530490346,
      -8.505496146339622,
      -1.772393101540855,
      5.333520634831223,
      -9.485502340319746,
      1.7728332448006334,
      -3.1878639024340503,
      -10.463445954415985,
      -3.1369103097247772,
      7.7946555802459345,
      -13.536036312107614,
      19.529377778523465,
      3.379241713704225,
      -3.6266517444394166,
      -10.999463107251465,
      -3.272080184800282,
      25.2651745996138,
      -2.3981138579126955,
      3.432000922238137,
      -1.2546859180737915,
      -7.246728354084686,
      0.9251887048699063,
      15.448009151569622,
      -2.5144105352647306,
      -3.5337449238510588,
      -4.917824728344716,
      -1.8872520408956388,
      -0.7734494631164657,
      -9.233860403802227,
      -6.288441869367909,
      3.55538938875695
    ],
    [
      -12.06235779136502,
      -11.551560840299057,
      -7.215630294827605,
      5.433278377468805,
      -8.913448918889477,
      3.2450725947763512,
      3.7163391632358556,
      10.991094516421583,
      -1.9656961376955795,
      -13.507742190197003,
      4.707888622504353,
      14.60956728548859,
      1.4785108759707783,
      -0.2213749671294532,
      -1.1659277906705114,
      11.791326543477735,
      -10.51819135916854,
      -2.398113857912567,
      22.55746237757633,
      8.634669146382004,
      9.403835108015036,
      -0.856712877637031,
      -1.1946861106672664,
      -2.915251225270581,
      -13.656431075804175,
      -11.31582722990863,
      8.911556645918646,
      4.340384317108623,
      -11.633209229242379,
      11.655749221122836,
      7.0730903791119655,
      11.83571748948713
    ],
    [
      -13.85686952040268,
      -17.83376654836097,
      -25.698833880986456,
      -7.416639319658405,
      -5.1147730213553775,
      1.966404623514904,
      1.9517583415558322,
      15.332317159914817,
      -16.4108059304739,
      -4.8718157078372535,
      10.819367974404507,
      19.54499665259603,
      15.20465108908203,
      10.610497716077333,
      0.7145593948134127,
      16.812419712225374,
      -24.137171253491804,
      3.4320009222382586,
      8.634669146381997,
      31.336012018306068,
      12.014917887514281,
      0.6253024568631517,
      14.826031466460721,
      -7.657386884938716,
      -2.987499621893265,
      -15.43895617726958,
      11.130500570018887,
      -0.8485547495084119,
      -14.076060311661614,
      4.917101634022274,
      -4.9019586631713,
      14.495777979700815
    ],
    [
      -6.882824807330776,
      1.569216423470018,
      -5.359136504091817,
      8.142656233622011,
      -6.632774865858864,
      5.073081931683171,
      -0.6680139339488408,
      3.6188707010472494,
      -11.323680666485208,
      -9.742056646170264,
      -2.780252594733066,
      21.529442764604088,
      5.3391939524525975,
      -4.877055133886216,
      6.365552166354721,
      12.339993741760093,
      -12.791773064613734,
      -1.2546859180737058,
      9.40383510801513,
      12.014917887514349,
      30.761293397434354,
      -7.651352807205588,
      11.787314799650284,
      -4.567679006127506,
      2.263617546377607,
      -4.208053865862581,
      7.9170700880747775,
      -3.0746235960972084,
      -12.202153891023267,
      6.083966000234254,
      -5.514636342394047,
      7.999473926994707
    ],
    [
      1.7212693554167544,
      0.6987678008800213,
      -6.67797964394245,
      -3.9829442488233417,
      12.571130913304014,
      20.894112440991776,
      0.521130025521047,
      9.192703513050533,
      -2.4706213679936,
      6.638723533382766,
      -1.0691990698398484,
      12.931911169694603,
      3.41469829860058,
      -3.374409881509147,
      -15.413359307188044,
      9.534200750019295,
      2.5055711661230036,
      -7.246728354084732,
      -0.8567128776370516,
      0.6253024568630965,
      -7.651352807205598,
      31.56109286726277,
      9.671375580850235,
      2.5762047998614945,
      -14.665096799674322,
      -13.70117043409318,
      5.4002550321856315,
      7.846477388197489,
      8.081807403852041,
      9.077043557713145,
      -9.79929673898711,
      9.38266228050013
    ],
    [
      1.699849908865105,
      3.550469165409039,
      -17.699879735452267,
      -9.303673444255125,
      -1.3784429720253866,
      10.482994565429252,
      4.60043481126433,
      10.216310312209632,
      -2.722161120659299,
      -4.064946753283908,
      0.4979548252831744,
      20.869094434770997,
      23.313781817399665,
      -3.214607839770408,
      5.638927393249952,
      6.382215380005531,
      -15.361290122612164,
      0.925188704869945,
      -1.1946861106672673,
      14.826031466460696,
      11.787314799650265,
      9.671375580850205,
      34.30429297040133,
      10.192584413763191,
      2.056007100081105,
      -9.859485014713078,
      6.749034408115446,
      3.9043297393257923,
      -4.515907650650878,
      6.326766312786971,
      -10.255798062409418,
      3.8805020114291677
    ],
    [
      1.3032844371842631,
      14.597159406645329,
      -4.251555060578935,
      -11.171770251539332,
      4.664877932417558,
      -6.6035395086899555,
      18.641682678166784,
      4.184954257023685,
      17.781027624990553,
      -5.262247329927663,
      -1.122204319182648,
      -12.870813256736124,
      16.782535033603626,
      4.201092010047085,
      -5.866753674551457,
      -15.291701514468544,
      -5.029926692583211,
      15.448009151569595,
      -2.9152512252707625,
      -7.657386884938837,
      -4.567679006127633,
      2.5762047998614754,
      10.192584413763118,
      46.05164250473945,
      1.2815873359625183,
      -13.22475994117625,
      -6.652705071337592,
      19.381717732163608,
      -5.342866061621221,
      -2.8372770366984814,
      0.14328689248012638,
      -1.7570913974698716
    ],
    [
      18.62342922346867,
      12.556271785178447,
      0.5826496016269255,
      -12.301906070541312,
      -8.683464275731719,
      -11.798875998317,
      -7.366463333970719,
      -12.68609339208074,
      4.472281783100596,
      0.5095072814758703,
      -9.978836623208473,
      -17.627297848677777,
      -12.470807233965283,
      -4.2193032391291565,
      15.247761767405194,
      -7.176576574791461,
      -0.8538660859655052,
      -2.5144105352648523,
      -13.656431075804129,
      -2.987499621893196,
      2.2636175463777217,
      -14.665096799674389,
      2.056007100081081,
      1.2815873359623136,
      42.061687219173116,
      8.177164619667787,
      -7.617255831486376,
      -4.376369727266633,
      -3.520069976900002,
      -7.266221494206966,
      -6.25515134484439,
      -14.96196878450875
    ],
    [
      4.412720286702294,
      4.7829936866580995,
      19.024245525648624,
      6.271727371837317,
      -1.1657020112480596,
      -9.292844930278969,
      -8.11468094015368,
      -11.37733808012249,
      8.967548732504678,
      4.1193146604030275,
      -4.338908066635614,
      -11.77088538178341,
      -8.258267009588696,
      -0.8390664038317409,
      17.85035922598701,
      -12.591780183483454,
      14.61369203793854,
      -3.533744923851098,
      -11.31582722990854,
      -15.438956177269507,
      -4.208053865862452,
      -13.701170434093175,
      -9.859485014713039,
      -13.224759941176329,
      8.177164619667682,
      35.432968185004555,
      -9.477087973357284,
      -13.386270939822824,
      9.765542282833332,
      -7.72175412148916,
      8.021512927803109,
      -19.574477674301434
    ],
    [
      -3.05114136936013,
      -8.85324073658345,
      -8.598144014925483,
      0.011571665748893898,
      -1.62958670808347,
      8.898259773069706,
      2.211801496394456,
      6.557661212984846,
      -6.269826743962065,
      -6.135737791092165,
      1.446942382900147,
      20.224493322746348,
      4.1953662313344005,
      -1.2689819784552612,
      -2.2005498165377406,
      18.30185498655544,
      -8.29089225935325,
      -4.917824728344664,
      8.911556645918669,
      11.130500570018867,
      7.917070088074753,
      5.400255032185619,
      6.749034408115448,
      -6.652705071337499,
      -7.617255831486398,
      -9.47708797335733,
      15.867437356569003,
      1.2796297590572332,
      -2.9473539039955687,
      9.657618420822969,
      -3.0180303815423297,
      5.190795789493258
    ],
    [
      -4.689329748067988,
      3.3304213317737568,
      -3.3936323397370605,
      -8.170596856465407,
      2.2413566446107995,
      0.8303129943819109,
      14.086358582402722,
      10.732392669432045,
      18.55623789040249,
      -1.8234420801436715,
      -2.2107212021462024,
      -1.8568384443220567,
      1.6847180386228693,
      9.104124830276737,
      -6.034986324744001,
      -0.21766340839386697,
      -9.24130585322484,
      -1.8872520408956084,
      4.340384317108544,
      -0.8485547495084381,
      -3.0746235960972976,
      7.846477388197474,
      3.904329739325765,
      19.38171773216364,
      -4.37636972726658,
      -13.386270939822806,
      1.2796297590571937,
      22.65911629708986,
      -7.949309436060248,
      3.308048501231062,
      4.905041931062689,
      -0.19523614334126718
    ],
    [
      15.76318118765705,
      9.288122856449016,
      12.678662315062269,
      4.880651911673433,
      8.667267838848666,
      7.804450577403353,
      -7.330426082730111,
      -16.290556623514764,
      -1.6036051290087134,
      8.005651671846907,
      -4.004279517076662,
      -5.863612357018565,
      -1.7280366922953203,
      -17.385400939828322,
      -3.1307827591367743,
      -3.2149963915125763,
      20.381228540865898,
      -0.7734494631165798,
      -11.633209229242372,
      -14.076060311661703,
      -12.202153891023194,
      8.081807403851977,
      -4.5159076506509255,
      -5.342866061621312,
      -3.5200699768999115,
      9.765542282833417,
      -2.9473539039955954,
      -7.949309436060286,
      27.547961252955183,
      -3.8946520608856035,
      -7.755638736436946,
      -9.895438648944738
    ],
    [
      -3.242515003143568,
      -5.282212213587968,
      -7.8523669410075305,
      -0.23094099754669156,
      -3.7835969364382573,
      8.821156426099616,
      0.7919582843203429,
      10.828703135959541,
      2.960440595345714,
      -9.44881523289326,
      3.4250420747513095,
      19.730937771102425,
      0.6592204029692683,
      -5.34198438514996,
      1.0560163037175752,
      15.771157094946773,
      -6.082082241333713,
      -9.233860403802177,
      11.655749221122893,
      4.917101634022312,
      6.0839660002342395,
      9.077043557713145,
      6.326766312786993,
      -2.83727703669839,
      -7.2662214942070324,
      -7.721754121489239,
      9.65761842082299,
      3.308048501231133,
      -3.894652060885629,
      22.4771665156638,
      2.1111079806364725,
      5.015827249350491
    ],
    [
      -6.820002070400888,
      -9.228222670700008,
      8.845435174795886,
      2.2989914126757003,
      -10.079578898056724,
      -13.543352844304748,
      13.237020526700809,
      11.640433556702156,
      20.303838781710752,
      -1.269862965768638,
      9.000535455302826,
      3.094603400289831,
      -9.923950863681181,
      15.134125331006116,
      6.943981530223138,
      -5.196560988773306,
      -1.8618075252531108,
      -6.288441869367795,
      7.073090379111974,
      -4.901958663171192,
      -5.514636342394076,
      -9.79929673898708,
      -10.255798062409381,
      0.14328689248016976,
      -6.255151344844493,
      8.021512927803057,
      -3.018030381542322,
      4.905041931062679,
      -7.755638736436986,
      2.1111079806364432,
      31.177874049100218,
      -2.2314850302715232
    ],
    [
      -11.157521629343654,
      -10.338672652407167,
      -14.083866797232632,
      6.056602591449967,
      0.8510442465031745,
      8.855683596307074,
      -0.7537811026975282,
      11.806244441556982,
      -23.259113633925956,
      0.3030549069948478,
      11.319927937788236,
      16.917863354205764,
      4.743456130899506,
      2.1673418408787692,
      -15.58163391921393,
      11.321964934151447,
      -7.233007558328594,
      3.5553893887570185,
      11.835717489487118,
      14.49577797970081,
      7.999473926994636,
      9.382662280500206,
      3.880502011429201,
      -1.7570913974697686,
      -14.961968784508759,
      -19.574477674301523,
      5.190795789493276,
      -0.19523614334123693,
      -9.895438648944682,
      5.015827249350479,
      -2.231485030271628,
      32.08937508736138
    ]
  ],
  "latent_diag_var": [
    0.24759025871753693,
    0.2729317247867584,
    0.2377055138349533,
    0.25741514563560486,
    0.22740674018859863,
    0.2549839913845062,
    0.1991511434316635,
    0.3318500518798828,
    0.17263449728488922,
    0.24682025611400604,
    0.2026505321264267,
    0.18134093284606934,
    0.1658513844013214,
    0.19693350791931152,
    0.22868551313877106,
    0.2093428671360016,
    0.25478461384773254,
    0.305808961391449,
    0.30826544761657715,
    0.29047417640686035,
    0.23266838490962982,
    0.30353400111198425,
    0.1904231160879135,
    0.19504651427268982,
    0.18804794549942017,
    0.20651493966579437,
    0.24579264223575592,
    0.26501941680908203,
    0.2565257251262665,
    0.1842934936285019,
    0.24576348066329956,
    0.21523764729499817
  ]
}