{
  "component_stats": {
    "reconstruction": {
      "mean": 0.6410514116287231,
      "std": 0.16159063577651978
    },
    "weighted_feature": {
      "mean": 0.6370145802857992,
      "std": 0.16020831737061914
    },
    "latent_distance": {
      "mean": 31.88872298413401,
      "std": 11.518477633509502
    },
    "density": {
      "mean": 20.261363983154297,
      "std": 6.5272393226623535
    }
  },
  "feature_weights": [
    1.016985297203064,
    0.9751892685890198,
    0.9162793755531311,
    1.0375938415527344,
    1.127975583076477,
    0.9547930955886841,
    1.084850549697876,
    0.9514029622077942,
    0.9850612282752991,
    0.840721607208252,
    1.0252635478973389,
    0.9103900790214539,
    1.0330169200897217,
    1.0179901123046875,
    0.900579035282135,
    0.9204176068305969,
    1.010756492614746,
    0.9360216856002808,
    1.1984403133392334,
    1.030410885810852,
    0.9740856289863586,
    0.9432611465454102,
    1.1012459993362427,
    1.1587775945663452,
    1.0404560565948486,
    1.0517164468765259,
    1.012230396270752,
    0.9570372700691223,
    1.0218098163604736,
    0.8885025978088379,
    1.0800164937973022,
    1.097534418106079,
    0.9718834161758423,
    1.0510905981063843,
    1.0508480072021484,
    0.8996016979217529,
    0.8720202445983887,
    0.8973790407180786,
    1.0045993328094482,
    1.0517657995224
  ],
  "latent_mean": [
    -0.17717765271663666,
    -0.3718318045139313,
    0.16547691822052002,
    0.2469133883714676,
    0.024835018441081047,
    0.059226177632808685,
    0.25455793738365173,
    0.3289810121059418,
    0.011539515107870102,
    0.19291310012340546,
    0.14375732839107513,
    0.19410228729248047,
    -0.13382305204868317,
    0.1490391045808792,
    -0.016583530232310295,
    -0.0433211550116539,
    -0.2860109210014343,
    -0.16798698902130127,
    -0.23646008968353271,
    -0.1308504194021225,
    -0.3173976242542267,
    0.07579539716243744,
    0.10164359211921692,
    -0.10716942697763443,
    -0.13050127029418945,
    -0.05095065012574196,
    -0.37844112515449524,
    0.0005101024871692061,
    0.16802044212818146,
    0.040472157299518585,
    -0.48658427596092224,
    0.2864697277545929
  ],
  "latent_inv_cov": [
    [
      30.690185834023026,
      -10.635250564600227,
      7.2823741167336475,
      -12.052612873523085,
      -5.0104130332301375,
      -2.871966552755913,
      -1.3975554320191557,
      5.033653502975958,
      -6.815533785723285,
      2.9299527137965984,
      -16.298061996687263,
      -5.3300459799051545,
      2.938185214495248,
      -15.488733880723812,
      2.718037852568402,
      5.743529807047161,
      -7.046188367986353,
      -1.6112972017247753,
      -0.1982916138512204,
      7.338025308528001,
      7.918142413307942,
      0.08013202784936513,
      6.376462598531227,
      -0.18051612845230633,
      -6.985229987499175,
      -1.8308574268104327,
      1.2023207943622904,
      12.287235447336537,
      -6.935595386746628,
      6.119626590346786,
      -2.0056476070054376,
      2.791699367313816
    ],
    [
      -10.63525056460026,
      17.923996673817197,
      -4.039394206904727,
      5.589003941383025,
      8.066640705844325,
      -4.037868566601041,
      -0.20609464265929336,
      -4.8105297771834215,
      3.052880026380633,
      0.6391405761866065,
      14.594765268227885,
      4.688589507096333,
      -4.270139378204998,
      6.32473149525935,
      3.05255430382223,
      -14.08317476212382,
      2.8958402043995264,
      8.693505663693918,
      -2.2713420834336104,
      -9.281410856650222,
      -4.079073404763854,
      -2.4389603971885734,
      -0.7049581735826359,
      5.114357234467788,
      3.7008957406553127,
      -0.5501475933069775,
      -2.8276468654295948,
      -4.137576273732913,
      5.627718377312584,
      -1.3610302223637507,
      0.8754734049924809,
      -3.05152310954934
    ],
    [
      7.282374116733727,
      -4.039394206904751,
      27.941691062130634,
      -7.993778336198101,
      -0.8662390262837092,
      -10.007887339288741,
      -5.195901047202039,
      2.8918276265466982,
      11.728818015571743,
      6.676872831810243,
      0.18742653566874046,
      -11.137142574606466,
      -3.534591925560914,
      -3.7157745799041275,
      4.361886706863031,
      12.41249519787426,
      5.926201407460482,
      -13.690470836115196,
      -3.1856008431659935,
      8.936243969479479,
      8.64587492264813,
      -5.7809187693053525,
      6.4061381380598545,
      -4.031833983333842,
      1.4245289400543428,
      0.5266679150204495,
      -2.1139243164542716,
      14.61851425400474,
      2.6246677739272433,
      4.712597222619245,
      -2.512624456720953,
      11.161470447198557
    ],
    [
      -12.052612873523088,
      5.589003941382994,
      -7.993778336198036,
      21.50583464563459,
      -2.162587677663709,
      7.0540264132636095,
      1.6813668429425126,
      -2.1967790567779173,
      1.0160012035169639,
      -12.784830405604266,
      8.683619155849295,
      8.252530158587215,
      -4.642761181235122,
      7.640025880582043,
      3.851984302694706,
      -3.825391768890592,
      2.7699976691801984,
      7.028469247810779,
      -0.10474956164300697,
      -7.1731688346796405,
      -5.839132799395381,
      4.054278306862234,
      -10.636699247630434,
      -0.5274070365568682,
      3.3816423699877087,
      -0.5560129082290399,
      -5.253906277035194,
      -11.512373737789611,
      9.63890824444071,
      -1.6492870751697173,
      4.621594781507602,
      -2.978308583253882
    ],
    [
      -5.010413033230156,
      8.066640705844335,
      -0.8662390262837382,
      -2.1625876776636823,
      18.00488126286863,
      -4.961802856804288,
      -1.1739227777604027,
      -7.176847194199947,
      2.116111689410249,
      1.803244169030339,
      7.412933825950473,
      2.308911562146567,
      -2.7710710069556073,
      -5.331945294396505,
      -2.1433370436343635,
      -3.960652719193922,
      3.960793029358031,
      -3.7962173782542274,
      1.8234979520812686,
      -8.953144993705486,
      -2.104244981534846,
      -3.490482889126736,
      0.11524985456704248,
      -0.45533112951495475,
      -2.0031161160590263,
      -2.522881284015513,
      -1.1388562197416663,
      -6.145401673873589,
      -2.7648162398063345,
      0.009735489484190287,
      -4.245474579240809,
      0.04049851060819638
    ],
    [
      -2.8719665527559846,
      -4.037868566600997,
      -10.007887339288756,
      7.0540264132636645,
      -4.961802856804281,
      27.580841339018303,
      5.5525648770870015,
      4.58731433309694,
      -11.426572229595903,
      -16.3277999562789,
      -7.935525712264575,
      1.1162660604717756,
      -6.1064332676458815,
      10.401927099466825,
      -6.361310220346348,
      3.7246831209876383,
      2.3773146133497085,
      -6.37936868310734,
      4.7007261422768,
      1.7945105125547207,
      -3.9542578150279235,
      -1.8585843152268922,
      -1.4498321576647826,
      2.321022401352053,
      7.375725856291599,
      5.588869499286976,
      -1.6626248198050457,
      -16.95035011932394,
      -0.9017289213454659,
      -6.268883396875634,
      12.865714406861342,
      -1.4110476800489313
    ],
    [
      -1.3975554320192218,
      -0.2060946426592841,
      -5.195901047202039,
      1.6813668429425745,
      -1.1739227777604484,
      5.552564877087033,
      23.66626954250139,
      -4.49156977909634,
      -3.566965199580691,
      -13.658275931890227,
      0.648459726622544,
      4.238328777698459,
      4.883394483863712,
      8.112040299347665,
      -5.702626216592181,
      0.0430929105283536,
      4.744965466724296,
      2.0987547902228463,
      2.3181121947398386,
      -6.777011917980315,
      1.0332493520850725,
      4.280208814646227,
      -1.4426487477228116,
      -10.186818597357027,
      9.33661159560174,
      -0.641197582122254,
      -0.7963688159990651,
      -5.82593910202838,
      -6.491648529038047,
      -8.478304432992882,
      -0.09763643442429842,
      5.721501759445239
    ],
    [
      5.033653502975928,
      -4.810529777183385,
      2.8918276265466325,
      -2.196779056777895,
      -7.176847194199931,
      4.587314333097002,
      -4.491569779096352,
      19.988511788464308,
      -5.975201754291005,
      -9.606492625368393,
      -9.751592612999849,
      -4.171048194383939,
      -5.66428803187397,
      -3.7255284610790254,
      -9.864272953457958,
      2.4595029824918804,
      -7.890352529003061,
      -4.85178052246629,
      -6.546693169586098,
      10.041966003978445,
      1.2342171994728788,
      -2.115114498073437,
      -1.7687424074786122,
      3.81827996976334,
      4.434801318795602,
      3.128540851938681,
      -0.839997503505261,
      8.522053903987004,
      2.505486089014968,
      -3.3761929116189133,
      10.443541089319657,
      2.6212113508715214
    ],
    [
      -6.81553378572313,
      3.052880026380537,
      11.728818015571862,
      1.0160012035168284,
      2.1161116894102454,
      -11.426572229595992,
      -3.5669651995807796,
      -5.975201754290942,
      31.871689042137618,
      7.171173960354014,
      11.431803523612249,
      2.2005400215147684,
      -4.081328066298628,
      9.208619309944469,
      6.2951169409137195,
      4.189236659158215,
      13.303823763176508,
      -2.3756492317159172,
      -9.71290259424177,
      -7.727536546465716,
      4.17489438815386,
      2.475026574466037,
      -0.7425964991631587,
      -1.6130706670164219,
      -4.323897728603368,
      -0.9013080345378511,
      -2.7428138601944783,
      14.974634575927858,
      -3.0173271839218683,
      5.126154564703152,
      -5.94643736440155,
      5.035204774197552
    ],
    [
      2.929952713796733,
      0.6391405761865673,
      6.676872831810293,
      -12.784830405604357,
      1.8032441690304026,
      -16.327799956278927,
      -13.658275931890188,
      -9.606492625368402,
      7.171173960353884,
      53.94285268952919,
      6.0513825590662496,
      -14.736435351807497,
      14.410964356212741,
      -0.0138613878395734,
      18.834227008446792,
      -2.4438720554227795,
      1.908952441684028,
      5.827147595627003,
      6.85272297394826,
      0.7170226872104816,
      4.871728438791107,
      -3.3046253309396256,
      18.520938557732126,
      6.69024186938287,
      -13.717272318927987,
      2.6119970860583384,
      11.199287749447326,
      18.88668519764065,
      -3.934266223206365,
      10.723393354901148,
      -24.440655618813906,
      -2.9474164101611087
    ],
    [
      -16.298061996687256,
      14.594765268227855,
      0.1874265356688059,
      8.683619155849296,
      7.412933825950456,
      -7.935525712264633,
      0.6484597266225282,
      -9.751592612999866,
      11.431803523612368,
      6.051382559066288,
      25.929789260817152,
      2.2417824505692083,
      -0.6626629679827745,
      11.788563028061644,
      7.7452105156626,
      -14.083322014032094,
      8.027992853358503,
      6.582526263493419,
      0.17676182828200865,
      -11.147552102309021,
      -1.9211781206811598,
      0.7798740832193455,
      0.9337620771745629,
      -1.7130048033499923,
      6.417431242672882,
      -1.1520813382082504,
      -1.4117815699193448,
      -3.780843419974249,
      8.981948079792366,
      -2.1417558098152716,
      -5.1122662808259465,
      -1.2420367242038899
    ],
    [
      -5.330045979905156,
      4.688589507096303,
      -11.137142574606436,
      8.25253015858721,
      2.308911562146518,
      1.1162660604717414,
      4.238328777698412,
      -4.171048194383912,
      2.200540021514836,
      -14.736435351807433,
      2.241782450569177,
      22.023688964256582,
      0.6454216770860924,
      -0.19698908715674346,
      -2.027442191015673,
      -4.722891960299033,
      -5.07752689249609,
      9.894578208190264,
      -8.550624163592065,
      -2.0944348967734423,
      -4.298495425008298,
      6.025848095165797,
      -15.171040554003806,
      1.4119712332188843,
      -3.9551170491080274,
      -2.303823991396623,
      -1.7774177705684409,
      -3.8404742456699617,
      -4.393791213291223,
      -3.062001677431151,
      4.386196082814287,
      -4.6744317658854255
    ],
    [
      2.9381852144952707,
      -4.2701393782050125,
      -3.5345919255609073,
      -4.642761181235129,
      -2.771071006955623,
      -6.106433267645841,
      4.883394483863751,
      -5.664288031873945,
      -4.081328066298673,
      14.410964356212709,
      -0.6626629679827911,
      0.6454216770860737,
      22.2477418437442,
      -3.4498139414542335,
      5.296137380288858,
      0.9583385053751322,
      -3.2071321334530865,
      10.317070049051166,
      5.559935871300947,
      -2.5787912127695027,
      4.763635630731981,
      6.778739242850357,
      0.38495302778283563,
      -8.236863796338719,
      -3.4291668217421654,
      -1.4840578618564237,
      5.088311169404048,
      7.369138190597284,
      -4.300608068377927,
      -2.81562518295094,
      -19.210194670305366,
      -1.7929618355072134
    ],
    [
      -15.48873388072379,
      6.324731495259313,
      -3.7157745799040303,
      7.640025880582024,
      -5.331945294396512,
      10.401927099466745,
      8.112040299347573,
      -3.725528461079065,
      9.208619309944629,
      -0.013861387839428148,
      11.788563028061636,
      -0.19698908715674743,
      -3.44981394145424,
      33.66629153775038,
      7.227370868295538,
      -7.748379600254407,
      9.011990617752257,
      3.200472584233776,
      -2.0209420477916584,
      -2.868283764531416,
      0.6309702735179238,
      1.249545600169423,
      4.72533386955803,
      5.362713201539608,
      11.56844634349999,
      8.366150644292503,
      1.095721928663754,
      -2.2479034579332775,
      0.5015352230277433,
      -8.64491151289548,
      6.0852008199691605,
      -0.019899366675213484
    ],
    [
      2.718037852568483,
      3.052554303822186,
      4.361886706863112,
      3.85198430269464,
      -2.1433370436343346,
      -6.3613102203464065,
      -5.702626216592204,
      -9.864272953457967,
      6.295116940913732,
      18.83422700844684,
      7.74521051566257,
      -2.027442191015703,
      5.2961373802888785,
      7.22737086829545,
      28.940748802015115,
      -5.4817556895918,
      0.3019660426368261,
      10.861637598462202,
      2.716151531465932,
      2.6725265590480487,
      5.986364659295447,
      2.7822425539634557,
      4.830150414849366,
      7.2651577396800375,
      -5.420203348852648,
      2.465483803312202,
      3.790625213025851,
      5.8011896377703485,
      3.7770887231538044,
      2.5918036218172595,
      -9.017474869692078,
      -5.184039400074852
    ],
    [
      5.743529807047238,
      -14.083174762123846,
      12.412495197874241,
      -3.8253917688906514,
      -3.9606527191939174,
      3.7246831209876694,
      0.043092910528329656,
      2.459502982491946,
      4.18923665915809,
      -2.4438720554227884,
      -14.08332201403217,
      -4.722891960299079,
      0.9583385053751294,
      -7.748379600254492,
      -5.481755689591852,
      31.57760456294732,
      6.837592579409634,
      -13.74224303722885,
      1.6743150904490858,
      2.811918767599827,
      2.3472892615947187,
      -3.164339635613746,
      -5.099612439088439,
      -7.078495670509317,
      -6.460704325415697,
      0.17654199983664937,
      -3.8627137713397373,
      4.129141368765463,
      -7.094900931469578,
      5.968014246804068,
      -4.427301195625696,
      9.342054079666587
    ],
    [
      -7.046188367986301,
      2.8958402043994917,
      5.926201407460554,
      2.769997669180154,
      3.960793029358029,
      2.377314613349645,
      4.744965466724265,
      -7.890352529003057,
      13.303823763176583,
      1.908952441684072,
      8.027992853358473,
      -5.0775268924960875,
      -3.2071321334530776,
      9.01199061775221,
      0.3019660426368269,
      6.8375925794097085,
      22.72962601082264,
      -6.7616032737827725,
      5.806723826375917,
      -14.57470303775913,
      -1.0960887044900691,
      -3.151052685738978,
      5.089796498505786,
      -8.651575609970445,
      3.6129675969647996,
      -1.4054755402307977,
      -5.049197700711409,
      -6.175136236407541,
      1.0406680054326554,
      4.543200479129906,
      -4.577599606425435,
      5.731247024141181
    ],
    [
      -1.6112972017247795,
      8.6935056636939,
      -13.690470836115148,
      7.02846924781079,
      -3.7962173782542625,
      -6.379368683107349,
      2.098754790222832,
      -4.851780522466301,
      -2.3756492317158426,
      5.827147595627052,
      6.582526263493424,
      9.89457820819025,
      10.317070049051166,
      3.2004725842338226,
      10.861637598462258,
      -13.742243037228828,
      -6.761603273782742,
      29.519457335108342,
      -1.8185388175175718,
      -7.8095244969535615,
      -1.3996997218465352,
      7.854097272729693,
      -5.927903801432514,
      5.4419200783955946,
      -5.162237493267055,
      -2.7866440836114315,
      1.2085609307071252,
      4.655801711856345,
      2.0158501028112017,
      -0.13731476499335526,
      -6.945239344391157,
      -9.952354952021212
    ],
    [
      -0.19829161385129773,
      -2.2713420834335594,
      -3.1856008431660108,
      -0.1047495616429365,
      1.823497952081292,
      4.700726142276818,
      2.3181121947399133,
      -6.546693169586156,
      -9.712902594241712,
      6.852722973948158,
      0.17676182828209278,
      -8.55062416359201,
      5.559935871300914,
      -2.0209420477915763,
      2.7161515314659237,
      1.6743150904490458,
      5.80672382637599,
      -1.8185388175175532,
      21.544483178187345,
      -7.663293804418456,
      -1.4171117095538035,
      -1.553647643457511,
      6.748438435082058,
      -8.294094120052781,
      3.3152994832778373,
      -2.0077498969717382,
      -0.32007184183164616,
      -15.66791638920925,
      6.824506683222443,
      0.5742891383969024,
      -7.324146034670485,
      -3.527977157856207
    ],
    [
      7.338025308528009,
      -9.281410856650208,
      8.936243969479433,
      -7.173168834679666,
      -8.953144993705452,
      1.7945105125547467,
      -6.777011917980332,
      10.041966003978468,
      -7.727536546465828,
      0.7170226872104961,
      -11.14755210230903,
      -2.0944348967734845,
      -2.5787912127695076,
      -2.868283764531462,
      2.672526559048026,
      2.8119187675997774,
      -14.574703037759162,
      -7.809524496953568,
      -7.66329380441837,
      36.14394318109004,
      5.592401448319206,
      -2.545035836917025,
      0.990674125170366,
      9.417023512477346,
      0.7719325189686903,
      4.452593830865421,
      8.552681207497304,
      8.683129914232325,
      -0.9162899062934404,
      -4.172421018384806,
      14.340640037664327,
      -0.5338291010118436
    ],
    [
      7.918142413307976,
      -4.07907340476385,
      8.645874922648117,
      -5.839132799395412,
      -2.104244981534833,
      -3.9542578150278973,
      1.0332493520850736,
      1.234217199472906,
      4.1748943881537866,
      4.871728438791088,
      -1.9211781206811842,
      -4.2984954250083165,
      4.763635630731968,
      0.6309702735178915,
      5.986364659295414,
      2.347289261594699,
      -1.0960887044901075,
      -1.399699721846552,
      -1.417111709553785,
      5.592401448319236,
      14.854899201940523,
      3.030689396152346,
      1.4199763059330104,
      -1.6821813299497885,
      2.045182144434801,
      0.26611511647399605,
      1.745155988921583,
      14.846341582911702,
      -3.4165487999886723,
      -5.173495265428255,
      -6.2145522399071895,
      4.153408661974966
    ],
    [
      0.08013202784938311,
      -2.438960397188598,
      -5.780918769305325,
      4.054278306862218,
      -3.490482889126756,
      -1.8585843152268982,
      4.280208814646209,
      -2.1151144980734244,
      2.475026574466061,
      -3.304625330939592,
      0.7798740832193188,
      6.025848095165789,
      6.778739242850369,
      1.2495456001694196,
      2.7822425539634725,
      -3.1643396356137155,
      -3.1510526857389793,
      7.85409727272969,
      -1.5536476434575328,
      -2.5450358369169974,
      3.0306893961523635,
      13.778733115415344,
      -5.240642804416294,
      -4.271811604710348,
      -1.9328657301738852,
      -3.124263036493019,
      1.225438590107699,
      2.6466079434375454,
      -1.064000494009451,
      -2.4807614965839444,
      -5.222341392130353,
      -3.6472120414127165
    ],
    [
      6.37646259853122,
      -0.704958173582614,
      6.406138138059849,
      -10.636699247630427,
      0.11524985456708611,
      -1.4498321576647804,
      -1.4426487477227488,
      -1.7687424074786502,
      -0.7425964991631868,
      18.520938557732055,
      0.9337620771746005,
      -15.171040554003786,
      0.38495302778282947,
      4.72533386955802,
      4.83015041484933,
      -5.099612439088453,
      5.089796498505803,
      -5.927903801432527,
      6.748438435082093,
      0.9906741251703212,
      1.419976305932989,
      -5.240642804416293,
      24.180376319041542,
      0.8035289569906547,
      2.168223884982239,
      2.6879440183891976,
      5.460357686101475,
      2.1909664320473152,
      0.2273584127475696,
      5.197331605823318,
      -3.900326486127492,
      1.7852611055344378
    ],
    [
      -0.1805161284522705,
      5.114357234467779,
      -4.03183398333383,
      -0.5274070365568936,
      -0.455331129514931,
      2.3210224013520233,
      -10.186818597357066,
      3.8182799697633194,
      -1.613070667016448,
      6.690241869382917,
      -1.7130048033500043,
      1.4119712332188568,
      -8.236863796338715,
      5.362713201539552,
      7.265157739680056,
      -7.078495670509325,
      -8.651575609970454,
      5.441920078395573,
      -8.294094120052744,
      9.417023512477348,
      -1.682181329949802,
      -4.271811604710362,
      0.8035289569907009,
      27.048146795388153,
      -6.356615450243752,
      6.4333319885187885,
      3.5811324489215046,
      3.7198240850910143,
      -3.015836226237943,
      1.2330961947087136,
      10.518608007484426,
      -7.815197302369842
    ],
    [
      -6.985229987499273,
      3.7008957406553504,
      1.4245289400543193,
      3.381642369987781,
      -2.003116116059038,
      7.375725856291615,
      9.336611595601742,
      4.43480131879556,
      -4.323897728603263,
      -13.717272318927977,
      6.417431242672946,
      -3.955117049107978,
      -3.4291668217421902,
      11.568446343500108,
      -5.420203348852601,
      -6.46070432541571,
      3.6129675969648605,
      -5.162237493267031,
      3.3152994832777867,
      0.7719325189686665,
      2.0451821444347855,
      -1.932865730173854,
      2.1682238849822055,
      -6.35661545024372,
      24.947009249002107,
      2.2819918643146093,
      -2.503049908780597,
      -8.713816094999846,
      9.83189616850502,
      -11.870825373323775,
      9.18722375750036,
      5.001450179825042
    ],
    [
      -1.8308574268104176,
      -0.550147593306983,
      0.5266679150204624,
      -0.5560129082290474,
      -2.5228812840155035,
      5.588869499286973,
      -0.6411975821222814,
      3.1285408519386686,
      -0.9013080345378512,
      2.6119970860583757,
      -1.1520813382082502,
      -2.3038239913966443,
      -1.4840578618564317,
      8.366150644292492,
      2.465483803312223,
      0.17654199983665256,
      -1.4054755402307906,
      -2.786644083611453,
      -2.0077498969717227,
      4.452593830865428,
      0.26611511647399577,
      -3.1242630364930277,
      2.687944018389224,
      6.433331988518797,
      2.2819918643145924,
      9.44582760057751,
      1.7821832096993047,
      2.6702367550645656,
      -2.7311610145510548,
      -3.4507037900543582,
      3.2464006697811065,
      0.720612714774702
    ],
    [
      1.202320794362287,
      -2.8276468654295854,
      -2.1139243164542703,
      -5.253906277035198,
      -1.1388562197416465,
      -1.6626248198050435,
      -0.7963688159990552,
      -0.8399975035052726,
      -2.7428138601945067,
      11.199287749447333,
      -1.4117815699193288,
      -1.777417770568459,
      5.0883111694040535,
      1.0957219286637427,
      3.7906252130258444,
      -3.862713771339752,
      -5.049197700711402,
      1.2085609307071221,
      -0.3200718418316008,
      8.55268120749728,
      1.745155988921572,
      1.2254385901076856,
      5.460357686101499,
      3.5811324489214926,
      -2.503049908780588,
      1.782183209699299,
      10.766998220786466,
      4.568478755021801,
      -5.189123890369592,
      -1.666563540345917,
      -2.439416543360868,
      -1.8352988254698912
    ],
    [
      12.287235447336684,
      -4.137576273732967,
      14.618514254004756,
      -11.512373737789726,
      -6.145401673873584,
      -16.950350119323897,
      -5.825939102028423,
      8.522053903987103,
      14.974634575927668,
      18.88668519764069,
      -3.7808434199743677,
      -3.8404742456700696,
      7.369138190597286,
      -2.2479034579334107,
      5.801189637770291,
      4.1291413687654765,
      -6.175136236407656,
      4.655801711856285,
      -15.667916389209186,
      8.683129914232426,
      14.846341582911723,
      2.6466079434374805,
      2.1909664320473987,
      3.7198240850910453,
      -8.713816094999848,
      2.6702367550645785,
      4.568478755021841,
      47.86186222329196,
      -11.463525306759152,
      -0.31368313384569496,
      -13.259046299029677,
      7.16282351549439
    ],
    [
      -6.935595386746682,
      5.627718377312599,
      2.6246677739272504,
      9.638908244440742,
      -2.7648162398063314,
      -0.901728921345473,
      -6.491648529038026,
      2.5054860890149273,
      -3.01732718392178,
      -3.9342662232063645,
      8.98194807979241,
      -4.393791213291192,
      -4.300608068377932,
      0.5015352230278106,
      3.777088723153823,
      -7.0949009314695735,
      1.0406680054327122,
      2.0158501028112066,
      6.824506683222416,
      -0.9162899062934815,
      -3.4165487999886794,
      -1.0640004940094254,
      0.22735841274755617,
      -3.0158362262379574,
      9.831896168505024,
      -2.7311610145510583,
      -5.189123890369611,
      -11.46352530675915,
      25.871738593213983,
      1.5357008311378257,
      5.604651788722544,
      -3.938011655395689
    ],
    [
      6.11962659034686,
      -1.361030222363784,
      4.712597222619282,
      -1.6492870751697737,
      0.009735489484202936,
      -6.268883396875669,
      -8.478304432992866,
      -3.3761929116188942,
      5.126154564703108,
      10.723393354901123,
      -2.141755809815316,
      -3.0620016774311742,
      -2.815625182950919,
      -8.644911512895566,
      2.591803621817223,
      5.9680142468041035,
      4.543200479129873,
      -0.13731476499337927,
      0.5742891383969209,
      -4.172421018384794,
      -5.173495265428232,
      -2.480761496583955,
      5.1973316058233285,
      1.2330961947086694,
      -11.870825373323774,
      -3.45070379005438,
      -1.6665635403459245,
      -0.3136831338456827,
      1.5357008311378153,
      21.658655039285126,
      -2.938179550862578,
      0.9571517444673423
    ],
    [
      -2.005647607005511,
      0.8754734049925145,
      -2.512624456720975,
      4.621594781507636,
      -4.245474579240801,
      12.865714406861306,
      -0.09763643442434818,
      10.443541089319622,
      -5.9464373644014685,
      -24.440655618813846,
      -5.112266280825899,
      4.386196082814304,
      -19.210194670305373,
      6.0852008199692085,
      -9.017474869692025,
      -4.42730119562572,
      -4.577599606425398,
      -6.945239344391145,
      -7.324146034670509,
      14.340640037664304,
      -6.214552239907216,
      -5.222341392130337,
      -3.9003264861274936,
      10.518608007484444,
      9.187223757500343,
      3.2464006697811136,
      -2.439416543360857,
      -13.25904629902969,
      5.604651788722551,
      -2.9381795508625546,
      34.19448324684152,
      -0.8915254121540889
    ],
    [
      2.7916993673138437,
      -3.0515231095493496,
      11.161470447198552,
      -2.978308583253905,
      0.040498510608191915,
      -1.4110476800489196,
      5.721501759445224,
      2.6212113508715587,
      5.0352047741975055,
      -2.947416410161114,
      -1.2420367242039203,
      -4.674431765885433,
      -1.7929618355072154,
      -0.019899366675238474,
      -5.184039400074865,
      9.34205407966659,
      5.731247024141131,
      -9.952354952021217,
      -3.527977157856218,
      -0.5338291010117941,
      4.153408661974984,
      -3.647212041412724,
      1.7852611055344263,
      -7.81519730236982,
      5.001450179825051,
      0.7206127147747108,
      -1.83529882546988,
      7.162823515494407,
      -3.9380116553956968,
      0.9571517444673143,
      -0.8915254121540721,
      18.43234177974504
    ]
  ],
  "latent_diag_var": [
    0.160291388630867,
    0.31301963329315186,
    0.229009211063385,
    0.22320975363254547,
    0.216347336769104,
    0.17947937548160553,
    0.17444011569023132,
    0.23029425740242004,
    0.22744549810886383,
    0.14983300864696503,
    0.2239425778388977,
    0.24458691477775574,
    0.3049371838569641,
    0.19548259675502777,
    0.18088142573833466,
    0.19179929792881012,
    0.23282423615455627,
    0.224221870303154,
    0.22552502155303955,
    0.16789007186889648,
    0.26437681913375854,
    0.21869057416915894,
    0.22432295978069305,
    0.15630657970905304,
    0.17532967031002045,
    0.3081834018230438,
    0.2949931025505066,
    0.13610203564167023,
    0.18881763517856598,
    0.17303067445755005,
    0.20973066985607147,
    0.15947841107845306
  ]
}