{
  "component_stats": {
    "reconstruction": {
      "mean": 0.5697174072265625,
      "std": 0.15892647206783295
    },
    "weighted_feature": {
      "mean": 0.5656285141873809,
      "std": 0.1572680527341613
    },
    "latent_distance": {
      "mean": 31.88987853480455,
      "std": 12.32190198800609
    },
    "density": {
      "mean": 20.75705337524414,
      "std": 6.781890869140625
    }
  },
  "feature_weights": [
    0.9908388257026672,
    1.1128419637680054,
    1.0323323011398315,
    0.9510120749473572,
    0.9435752034187317,
    0.9317641258239746,
    0.9887374043464661,
    0.957768976688385,
    0.8447636365890503,
    0.9420700073242188,
    1.033961296081543,
    1.0579488277435303,
    1.0359423160552979,
    1.204126000404358,
    1.0372272729873657,
    1.0136123895645142,
    0.9824501872062683,
    1.1202478408813477,
    1.0175812244415283,
    1.028393030166626,
    1.118569016456604,
    0.9810091257095337,
    1.1510860919952393,
    0.7984021306037903,
    0.8966900110244751,
    0.9266388416290283,
    0.9521011114120483,
    1.0134702920913696,
    0.893779456615448,
    1.086965799331665,
    0.8848777413368225,
    1.0085927248001099,
    1.0008963346481323,
    1.0051873922348022,
    1.0873408317565918,
    0.9671953916549683
  ],
  "latent_mean": [
    -0.02746189758181572,
    -0.4165801405906677,
    0.12375666946172714,
    -0.018563684076070786,
    0.3187897205352783,
    0.06794153153896332,
    -0.2268894463777542,
    0.41911208629608154,
    -0.34343114495277405,
    0.3428909182548523,
    0.035687074065208435,
    -0.033602405339479446,
    0.37339454889297485,
    -0.10725671052932739,
    0.18946731090545654,
    0.1721026450395584,
    -0.1836594045162201,
    0.17975331842899323,
    -0.16993682086467743,
    -0.3146008849143982,
    -0.2980812191963196,
    0.162485733628273,
    0.4502560794353485,
    -0.15612253546714783,
    -0.029504915699362755,
    -0.4252236783504486,
    -0.22157952189445496,
    0.09581626206636429,
    0.20840249955654144,
    0.5565052032470703,
    0.21905434131622314,
    0.30064964294433594
  ],
  "latent_inv_cov": [
    [
      17.481289960902604,
      1.9802750381986518,
      -5.75283138808061,
      -8.651410428872587,
      7.525908034078327,
      -6.255413368772321,
      -11.178615425644972,
      9.660715961387584,
      4.130383235921916,
      0.4932089953220135,
      10.624952652203769,
      -11.754418838050988,
      -3.3877352395869473,
      1.8210596662629053,
      -0.8614600205712082,
      9.989760341966333,
      -2.394254123944387,
      -1.7129918979299412,
      -0.24999680117473644,
      -8.024611124624448,
      1.8314409591232408,
      -0.06644064121688842,
      -2.299044768607269,
      -0.9314792786178298,
      2.7807784282894463,
      12.62558790125958,
      6.798835404129011,
      -8.302077851734722,
      -6.204446008444566,
      9.461697556386358,
      -3.4505303121816584,
      2.9984431799887945
    ],
    [
      1.9802750381986696,
      15.771202576130044,
      1.1059793293609805,
      1.1306498506243974,
      -0.6284851149267972,
      -5.772744875802756,
      6.982542384113911,
      -5.948661807222966,
      -5.645469930987498,
      -1.2379964464611468,
      -4.656386718865749,
      5.434772071917706,
      -1.0787011056739468,
      5.800496285068478,
      3.8832440457711574,
      3.9552888296731794,
      -10.358262905248043,
      -0.486670299388238,
      6.287528140280825,
      2.776038311473366,
      -1.7684155112611066,
      1.2320203065524598,
      3.5810564016807485,
      2.395853905828171,
      -4.3029765454087,
      3.975789453073898,
      -0.8992623253823626,
      7.131308755260544,
      5.484059719702509,
      4.552645732124966,
      -4.6440123882777415,
      8.901850623778161
    ],
    [
      -5.752831388080532,
      1.10597932936096,
      26.64511664300148,
      1.857874914840334,
      -7.160616945865667,
      1.8101807478972822,
      10.962246659462556,
      -9.067002839233165,
      -21.57856330296036,
      2.6436565079720165,
      -12.513762928578243,
      16.47992498531776,
      -2.832517888885368,
      -8.850435842425767,
      7.517845914681508,
      -8.225959724723863,
      -2.829545071266999,
      -1.1149437681766643,
      2.32544786768202,
      10.43219256667736,
      14.34546804958629,
      2.1939247988314046,
      3.932571408904738,
      2.317471908617887,
      2.657803602065188,
      -14.167074023079074,
      -5.48413554970179,
      19.29553666185525,
      18.650524334314063,
      -17.816373375835187,
      3.0297015195096164,
      5.43429274520042
    ],
    [
      -8.651410428872602,
      1.1306498506244145,
      1.857874914840446,
      21.831191243975045,
      -4.97444049027816,
      -1.9823869165302495,
      8.093645734661148,
      -14.32835185917833,
      -2.5495070617897366,
      -14.10899434589013,
      -13.863750088636577,
      10.559977715291533,
      -6.609452704769376,
      -3.5333065656109803,
      12.435655974320001,
      -15.020189585581722,
      -5.588328972511502,
      8.309812053686352,
      4.035257703781644,
      6.938583758057081,
      -7.793415284932633,
      2.9975359912964037,
      15.87358526895544,
      7.6651668597621265,
      -1.297993421123817,
      -10.545366098215025,
      -6.700913158843667,
      5.293079653202549,
      6.676107954655612,
      -2.4278026917257174,
      -6.328266316075703,
      -9.335272528483236
    ],
    [
      7.525908034078323,
      -0.6284851149267773,
      -7.160616945865758,
      -4.974440490278094,
      17.417144345298386,
      5.462964380376126,
      -0.5888414833897802,
      12.416913495638763,
      4.553951746809561,
      5.003786183241522,
      4.9774490204655475,
      -13.479670409026765,
      -10.878463776853192,
      -1.7749100821317927,
      -4.109891924794364,
      12.892417645806084,
      2.5041824449662817,
      2.159988132863207,
      -1.6500132894686226,
      -9.448617222931343,
      -0.05506987008695419,
      -4.607388068025305,
      -11.064831483220546,
      5.521141621059469,
      -2.9441050153103494,
      -0.5853982606730918,
      6.933800016506006,
      -8.030125090597796,
      -12.51673111631855,
      10.982107887952832,
      -2.805651956973385,
      2.07682149441455
    ],
    [
      -6.255413368772341,
      -5.772744875802707,
      1.810180747897258,
      -1.9823869165301786,
      5.462964380376136,
      21.036182627361388,
      8.55232580624906,
      4.962487375161299,
      1.8908090021499249,
      12.339105614673597,
      -0.7069849492045757,
      2.2914299063938013,
      -1.7825518520084658,
      -7.11758975904146,
      -10.290109607557278,
      6.1470927944938465,
      8.826210761020901,
      3.3487547123224473,
      -2.2655252906741072,
      -1.1150551464148712,
      5.13955551709018,
      -5.161885251297554,
      -10.119504537398361,
      -0.9765230947245208,
      -4.689471927118044,
      -12.450668370599171,
      2.574623452402134,
      2.4466361403817047,
      -6.625398862114805,
      -0.8940181504883059,
      1.5994575843008936,
      -0.8611967802463656
    ],
    [
      -11.178615425644965,
      6.982542384113949,
      10.962246659462602,
      8.093645734661152,
      -0.5888414833897896,
      8.552325806249014,
      31.78376859063901,
      -11.75301737666129,
      -9.823855682501272,
      6.970413576391744,
      -19.673378720563143,
      16.185905868693773,
      -7.322368243301981,
      -8.256911219121465,
      4.841106782321409,
      1.3346991252591265,
      -7.844377661618886,
      9.32697691333834,
      5.66500902261638,
      10.793299037909803,
      6.742955826618453,
      2.930031171220845,
      -0.8008834912888557,
      8.298746249691364,
      -5.488405378138633,
      -17.897061241831977,
      -1.9477156212736482,
      16.46218553431292,
      11.794669012698206,
      -1.233873829397493,
      -3.71796928617747,
      2.547190190238877
    ],
    [
      9.660715961387588,
      -5.948661807222944,
      -9.067002839233297,
      -14.328351859178271,
      12.416913495638822,
      4.962487375161351,
      -11.753017376661276,
      31.254664593924602,
      5.251253760671444,
      16.77650679956915,
      22.916701341195523,
      -22.582245542900267,
      -0.702260854453453,
      0.8186499609498084,
      -19.75533647945753,
      18.219925416451343,
      15.47285241449541,
      -9.217263648911306,
      -11.390088358259897,
      -0.7787471000692151,
      3.555541713809359,
      2.6011703144494915,
      -20.02635928152407,
      -2.755813564193116,
      -0.5709322160938526,
      2.8474032385717956,
      13.217437665694678,
      -10.820104742637376,
      -17.743477441225007,
      5.031320280071013,
      14.60281871461341,
      -1.627755719318388
    ],
    [
      4.1303832359218156,
      -5.645469930987561,
      -21.578563302960386,
      -2.5495070617896225,
      4.553951746809477,
      1.8908090021499895,
      -9.823855682501232,
      5.251253760671369,
      36.6597452538023,
      -3.667292035780378,
      10.963377060108506,
      -15.787111294969959,
      7.7407982919694875,
      4.537973218953275,
      -3.3683274306237556,
      3.797705298758291,
      3.4131871235105278,
      7.804086745485121,
      -0.655127207668561,
      -19.335590152861347,
      -16.31646132107961,
      -4.117940956304293,
      -3.087180602525256,
      -4.909626908009182,
      0.2615524455667085,
      19.137664288361464,
      5.253724688635139,
      -16.987744265549818,
      -17.308028862635368,
      18.429684630287117,
      -9.39466919343041,
      -5.543630769016707
    ],
    [
      0.4932089953220204,
      -1.237996446461082,
      2.6436565079719205,
      -14.108994345890117,
      5.003786183241588,
      12.339105614673619,
      6.970413576391738,
      16.776506799569198,
      -3.6672920357803735,
      32.65018661763861,
      12.22177906889478,
      -2.0871304469782874,
      6.226919674696249,
      0.8120582873403235,
      -24.234031884863718,
      20.662808633162772,
      10.76125762475997,
      -5.970151877269783,
      -6.462147147313951,
      11.070996666225758,
      14.92723374117011,
      6.010157088461964,
      -19.004301469852024,
      -9.100013046922657,
      -3.0655994065082917,
      -3.464517618430772,
      10.005091033790858,
      2.133992888288804,
      -2.478439406421892,
      -2.4843796574750945,
      16.38468975275038,
      2.5328768112161066
    ],
    [
      10.624952652203755,
      -4.6563867188657335,
      -12.513762928578407,
      -13.86375008863653,
      4.977449020465607,
      -0.7069849492045032,
      -19.673378720563182,
      22.916701341195573,
      10.963377060108584,
      12.221779068894739,
      44.61545835010939,
      -9.811228771997495,
      14.314310120153278,
      10.243488506974835,
      -24.67096747050323,
      13.190539547649136,
      16.440134494782075,
      -15.025172514212294,
      -9.35487342443707,
      1.8214198644680244,
      0.16244200140334106,
      -5.350661922800034,
      0.22184141469631014,
      -25.052191078097753,
      2.055689039185671,
      9.67610828890496,
      4.117352507440595,
      -12.147162661539118,
      -12.84689528841463,
      -2.089813209970206,
      11.3236224320822,
      -2.12205362240531
    ],
    [
      -11.75441883805098,
      5.434772071917743,
      16.479924985317858,
      10.559977715291495,
      -13.479670409026767,
      2.2914299063937533,
      16.18590586869374,
      -22.582245542900257,
      -15.78711129497008,
      -2.0871304469782843,
      -9.811228771997449,
      38.06306081482862,
      7.241795165223609,
      -1.9258858728886492,
      4.547054468123519,
      -12.746090918586999,
      -7.349677307409288,
      1.2889469961212867,
      8.45630090534573,
      15.097015679874199,
      7.934734659095069,
      -4.586470911508739,
      22.14121811306025,
      -11.57015440907649,
      -0.7876139891429951,
      -13.486942464190726,
      -15.251478029846991,
      20.38634341690839,
      22.757092819087646,
      -18.623353164635954,
      -4.864184877147476,
      2.971874722896717
    ],
    [
      -3.3877352395869664,
      -1.0787011056739721,
      -2.832517888885359,
      -6.609452704769389,
      -10.878463776853184,
      -1.782551852008419,
      -7.322368243302007,
      -0.702260854453389,
      7.740798291969454,
      6.226919674696263,
      14.314310120153307,
      7.241795165223597,
      26.323547250601443,
      10.503677952811687,
      -12.325866127595154,
      -1.0274044863667096,
      6.465921233323647,
      -7.67309374615306,
      -2.017842987477467,
      3.1995795910683684,
      -2.2868890333787153,
      -1.3470905563008135,
      3.3482276542561102,
      -20.10488168948194,
      0.9312796634747995,
      11.737827196199019,
      -3.543133055128098,
      1.0712313860725904,
      3.4172112216963977,
      -7.045408446949651,
      6.541537641192018,
      3.167868010286557
    ],
    [
      1.8210596662629068,
      5.800496285068485,
      -8.85043584242579,
      -3.5333065656109737,
      -1.7749100821318093,
      -7.117589759041483,
      -8.256911219121507,
      0.8186499609497877,
      4.537973218953334,
      0.8120582873402342,
      10.243488506974806,
      -1.9258858728886776,
      10.503677952811701,
      20.940637518999377,
      -7.556169766725299,
      7.5349257325543,
      -1.276306143574215,
      -8.15341916351908,
      0.42309863333653186,
      -0.81656299579622,
      -8.188495104335688,
      -1.5864788720564036,
      2.441133288872237,
      -8.261961681948053,
      -4.942808944466389,
      13.769081092225058,
      -3.252674760447341,
      -6.945760928189647,
      -2.548748038987787,
      4.353700071783832,
      2.645840474192527,
      4.000389740762134
    ],
    [
      -0.8614600205712005,
      3.883244045771054,
      7.517845914681583,
      12.435655974319962,
      -4.109891924794392,
      -10.290109607557254,
      4.8411067823214315,
      -19.755336479457554,
      -3.3683274306236943,
      -24.234031884863654,
      -24.67096747050317,
      4.547054468123538,
      -12.32586612759512,
      -7.556169766725382,
      34.859903650300595,
      -16.759811670619268,
      -16.225439948660075,
      11.454954504126695,
      9.49681332746691,
      -7.9870254065284385,
      -6.199537313454591,
      -0.9671429004593487,
      13.641195084522609,
      18.876877323464917,
      4.104657061314449,
      0.3291539280530243,
      -7.286912281414647,
      5.945087849642104,
      11.018092288122471,
      0.7912976767332084,
      -16.24498179271208,
      1.750741631504731
    ],
    [
      9.9897603419663,
      3.955288829673192,
      -8.225959724724012,
      -15.02018958558159,
      12.892417645806123,
      6.147092794493913,
      1.334699125259186,
      18.219925416451243,
      3.797705298758445,
      20.66280863316268,
      13.190539547649106,
      -12.746090918586905,
      -1.0274044863667335,
      7.534925732554314,
      -16.759811670619257,
      36.78767322778187,
      1.812977204325958,
      -6.465760819445219,
      -2.4841806582780865,
      -1.2175541737069475,
      5.447883870387948,
      -1.6955020546357016,
      -17.18209963606743,
      -1.2140763540949895,
      -8.67734012767381,
      10.48783562784283,
      10.52397871455981,
      -9.944617858347867,
      -12.73086127729955,
      13.665507466501845,
      4.624004451863115,
      6.527100582649859
    ],
    [
      -2.394254123944394,
      -10.358262905248033,
      -2.829545071267049,
      -5.588328972511481,
      2.50418244496633,
      8.826210761020954,
      -7.8443776616188705,
      15.472852414495458,
      3.4131871235105016,
      10.761257624759978,
      16.440134494782043,
      -7.349677307409319,
      6.465921233323586,
      -1.2763061435742078,
      -16.22543994866011,
      1.81297720432602,
      22.96519298605627,
      -7.863951867818799,
      -10.068666801163582,
      2.3060137195312977,
      1.6780465413057648,
      -4.125461190716373,
      -10.370730145571962,
      -9.387472582589991,
      -0.4395081866147505,
      -7.091276889957722,
      2.4573393938333448,
      -2.564314302936647,
      -10.920770646058799,
      -7.644732807318091,
      12.125737093331525,
      -3.04991225791288
    ],
    [
      -1.7129918979299732,
      -0.4866702993882213,
      -1.1149437681765964,
      8.309812053686372,
      2.1599881328631105,
      3.3487547123223633,
      9.326976913338337,
      -9.217263648911354,
      7.804086745485029,
      -5.970151877269768,
      -15.025172514212313,
      1.2889469961213353,
      -7.673093746152992,
      -8.153419163519056,
      11.454954504126668,
      -6.465760819445362,
      -7.863951867818801,
      21.2887402932252,
      4.980213910325711,
      -8.518971566447924,
      -2.7920808157664556,
      3.216006023139323,
      3.7919201883801144,
      6.640446385645849,
      1.5926424748841583,
      -1.5358943150080786,
      2.1489645034242253,
      0.09275911076947864,
      4.072999473911497,
      8.84743319511676,
      -11.90683912980811,
      -4.577607015855258
    ],
    [
      -0.24999680117473794,
      6.287528140280807,
      2.325447867682043,
      4.035257703781646,
      -1.6500132894686472,
      -2.265525290674129,
      5.665009022616374,
      -11.39008835825993,
      -0.6551272076685444,
      -6.462147147313963,
      -9.35487342443706,
      8.456300905345742,
      -2.0178429874774424,
      0.42309863333651715,
      9.496813327466919,
      -2.4841806582781505,
      -10.068666801163573,
      4.98021391032574,
      11.079526514141389,
      -2.321919414032523,
      -1.540953395193053,
      -2.2753772454073737,
      8.897469054433389,
      2.3943432233115467,
      -1.018185379854239,
      2.406349967633865,
      -4.491706623890714,
      4.5482921468454265,
      5.629979898517533,
      2.661889126735711,
      -10.617167151471001,
      3.6916051919372075
    ],
    [
      -8.024611124624409,
      2.7760383114734353,
      10.432192566677386,
      6.93858375805704,
      -9.448617222931286,
      -1.115055146414893,
      10.793299037909788,
      -0.7787471000691806,
      -19.335590152861432,
      11.070996666225758,
      1.8214198644681017,
      15.097015679874206,
      3.19957959106834,
      -0.8165629957961479,
      -7.9870254065284465,
      -1.2175541737068696,
      2.306013719531285,
      -8.518971566448016,
      -2.321919414032506,
      39.015158318944856,
      10.759742746543035,
      17.416931784649982,
      8.869424702018545,
      -1.8486346655392334,
      -1.159366410383055,
      -15.202704842071375,
      -0.47020697627193553,
      11.42920545522108,
      12.863666967444646,
      -15.304508652202474,
      18.73284874550082,
      -11.858567443575126
    ],
    [
      1.8314409591232763,
      -1.7684155112610647,
      14.345468049586241,
      -7.793415284932678,
      -0.05506987008688272,
      5.1395555170901845,
      6.742955826618445,
      3.5555417138094314,
      -16.316461321079625,
      14.927233741170168,
      0.1624420014034531,
      7.934734659095038,
      -2.2868890333787095,
      -8.188495104335608,
      -6.19953731345469,
      5.447883870388044,
      1.6780465413057848,
      -2.792080815766489,
      -1.5409533951930696,
      10.759742746543024,
      24.53688396472231,
      4.790332754900633,
      -3.2575259448400393,
      -4.310138583497351,
      4.61533401162482,
      -10.446682651697305,
      1.8219315992251777,
      7.309261077940336,
      9.920030339046534,
      -10.715941085550611,
      7.501240749496101,
      1.1527955397096803
    ],
    [
      -0.06644064121685528,
      1.2320203065524962,
      2.1939247988314365,
      2.9975359912963406,
      -4.607388068025331,
      -5.16188525129763,
      2.930031171220787,
      2.6011703144495306,
      -4.1179409563043645,
      6.010157088461989,
      -5.350661922799947,
      -4.586470911508734,
      -1.3470905563007614,
      -1.5864788720563225,
      -0.9671429004593529,
      -1.6955020546356327,
      -4.125461190716368,
      3.2160060231391827,
      -2.2753772454073844,
      17.41693178465006,
      4.790332754900652,
      31.464206823920964,
      -0.05978925947278384,
      8.735677201583567,
      2.36269877720727,
      0.9127520033004111,
      11.162550798129233,
      1.299258302962604,
      7.7609456354480075,
      2.6031338882200132,
      12.087942486205808,
      -14.533791721047585
    ],
    [
      -2.2990447686072817,
      3.581056401680742,
      3.9325714089047974,
      15.873585268955427,
      -11.064831483220583,
      -10.119504537398402,
      -0.8008834912889006,
      -20.026359281524087,
      -3.0871806025253314,
      -19.00430146985203,
      0.22184141469635682,
      22.141218113060273,
      3.348227654256141,
      2.4411332888722383,
      13.641195084522563,
      -17.182099636067587,
      -10.37073014557191,
      3.7919201883801,
      8.897469054433353,
      8.869424702018533,
      -3.2575259448400082,
      -0.05978925947279176,
      40.356869182955585,
      -9.605500733900623,
      4.644632331260757,
      -0.9358968555611572,
      -14.884291417081776,
      4.331856205229866,
      15.812604737733436,
      -8.928176757475265,
      -11.45074080045906,
      -9.704795564707293
    ],
    [
      -0.9314792786178201,
      2.395853905828127,
      2.317471908617929,
      7.665166859762136,
      5.521141621059454,
      -0.9765230947244994,
      8.298746249691442,
      -2.7558135641932053,
      -4.909626908009118,
      -9.100013046922639,
      -25.052191078097767,
      -11.5701544090764,
      -20.10488168948195,
      -8.261961681948106,
      18.876877323464978,
      -1.214076354094939,
      -9.387472582590052,
      6.640446385645918,
      2.3943432233115995,
      -1.8486346655392045,
      -4.310138583497269,
      8.735677201583584,
      -9.6055007339005,
      36.15161369457844,
      -2.819785053835904,
      -5.510020933499543,
      5.24047150306037,
      0.2906144719766338,
      -3.5897462053428053,
      9.916775730417273,
      -3.0768551671020097,
      -3.9225102339774494
    ],
    [
      2.7807784282894645,
      -4.302976545408718,
      2.6578036020651856,
      -1.2979934211238746,
      -2.9441050153103254,
      -4.689471927118025,
      -5.488405378138653,
      -0.5709322160937805,
      0.2615524455666768,
      -3.065599406508217,
      2.0556890391857436,
      -0.7876139891430346,
      0.9312796634748135,
      -4.942808944466381,
      4.10465706131438,
      -8.677340127673762,
      -0.4395081866146978,
      1.5926424748841093,
      -1.018185379854275,
      -1.159366410383028,
      4.615334011624866,
      2.3626987772072714,
      4.644632331260698,
      -2.819785053835936,
      12.935265185336128,
      1.3177935419337587,
      -0.8542079408287445,
      -2.013953845060374,
      4.653282768631318,
      -5.598369178778711,
      0.7089374291612184,
      -2.986032337351836
    ],
    [
      12.625587901259545,
      3.9757894530737965,
      -14.167074023079126,
      -10.545366098215005,
      -0.5853982606731242,
      -12.450668370599095,
      -17.897061241831985,
      2.847403238571789,
      19.13766428836159,
      -3.464517618430764,
      9.676108288904993,
      -13.486942464190683,
      11.737827196199078,
      13.769081092224997,
      0.3291539280530039,
      10.487835627842845,
      -7.091276889957665,
      -1.5358943150080595,
      2.406349967633857,
      -15.202704842071372,
      -10.446682651697303,
      0.9127520033003456,
      -0.9358968555611007,
      -5.5100209334995816,
      1.3177935419337792,
      38.50148679804806,
      5.558320121208665,
      -14.886700708301928,
      -6.638004685103103,
      15.684832872202941,
      -5.514484292159094,
      5.88997834014422
    ],
    [
      6.798835404129018,
      -0.8992623253823419,
      -5.484135549701837,
      -6.700913158843662,
      6.933800016505999,
      2.5746234524021183,
      -1.9477156212736497,
      13.217437665694698,
      5.253724688635161,
      10.005091033790873,
      4.117352507440607,
      -15.25147802984699,
      -3.5431330551280773,
      -3.252674760447303,
      -7.2869122814146605,
      10.52397871455988,
      2.457339393833329,
      2.148964503424204,
      -4.491706623890712,
      -0.4702069762718917,
      1.8219315992251597,
      11.162550798129269,
      -14.884291417081773,
      5.24047150306039,
      -0.8542079408287714,
      5.55832012120871,
      18.810213470810986,
      -5.37390963247651,
      -7.942493835723522,
      11.474725920039017,
      6.546191236705877,
      -2.7216683122264294
    ],
    [
      -8.302077851734676,
      7.131308755260528,
      19.295536661855312,
      5.29307965320246,
      -8.030125090597746,
      2.4466361403817243,
      16.46218553431288,
      -10.820104742637293,
      -16.98774426554982,
      2.133992888288851,
      -12.14716266153906,
      20.386343416908307,
      1.0712313860725748,
      -6.945760928189653,
      5.945087849642126,
      -9.944617858347769,
      -2.564314302936612,
      0.09275911076940166,
      4.548292146845432,
      11.429205455221057,
      7.309261077940371,
      1.2992583029625646,
      4.331856205229813,
      0.29061447197667395,
      -2.01395384506037,
      -14.886700708301873,
      -5.373909632476498,
      31.85469995155716,
      16.969728238759554,
      -15.449801449001468,
      0.11204335266476861,
      12.192764590171462
    ],
    [
      -6.204446008444515,
      5.484059719702519,
      18.65052433431414,
      6.676107954655505,
      -12.516731116318539,
      -6.6253988621148645,
      11.794669012698126,
      -17.74347744122492,
      -17.30802886263542,
      -2.4784394064218493,
      -12.846895288414487,
      22.757092819087585,
      3.417211221696448,
      -2.5487480389877395,
      11.018092288122443,
      -12.730861277299518,
      -10.920770646058742,
      4.072999473911364,
      5.6299798985174965,
      12.863666967444653,
      9.920030339046564,
      7.760945635447979,
      15.812604737733388,
      -3.589746205342867,
      4.653282768631349,
      -6.638004685103049,
      -7.942493835723514,
      16.96972823875961,
      29.255955473690687,
      -15.244861360480774,
      0.40163320170462363,
      1.870280110833558
    ],
    [
      9.461697556386309,
      4.552645732124963,
      -17.816373375835212,
      -2.4278026917256263,
      10.98210788795273,
      -0.8940181504883633,
      -1.2338738293974676,
      5.031320280070913,
      18.429684630287166,
      -2.4843796574751553,
      -2.0898132099702935,
      -18.623353164635887,
      -7.045408446949598,
      4.3537000717838215,
      0.7912976767332437,
      13.665507466501728,
      -7.644732807318134,
      8.847433195116832,
      2.66188912673571,
      -15.304508652202438,
      -10.715941085550655,
      2.603133888220111,
      -8.9281767574752,
      9.916775730417273,
      -5.598369178778686,
      15.684832872202968,
      11.474725920039008,
      -15.449801449001447,
      -15.244861360480693,
      32.1597006855867,
      -11.758864191303992,
      -2.132351322383344
    ],
    [
      -3.4505303121816175,
      -4.644012388277694,
      3.029701519509593,
      -6.328266316075748,
      -2.8056519569733136,
      1.599457584300915,
      -3.7179692861774774,
      14.602818714613473,
      -9.394669193430436,
      16.384689752750386,
      11.323622432082237,
      -4.864184877147508,
      6.541537641191971,
      2.6458404741925756,
      -16.24498179271206,
      4.624004451863282,
      12.125737093331505,
      -11.906839129808201,
      -10.617167151470976,
      18.732848745500824,
      7.501240749496084,
      12.087942486205723,
      -11.450740800459084,
      -3.0768551671019355,
      0.7089374291611509,
      -5.514484292159075,
      6.546191236705846,
      0.11204335266475929,
      0.40163320170455513,
      -11.758864191303989,
      27.591352375685688,
      -5.421083339572144
    ],
    [
      2.9984431799888243,
      8.901850623778111,
      5.43429274520039,
      -9.335272528483287,
      2.0768214944146073,
      -0.8611967802463023,
      2.5471901902388554,
      -1.6277557193183292,
      -5.54363076901655,
      2.5328768112161075,
      -2.1220536224053004,
      2.971874722896617,
      3.1678680102865475,
      4.000389740762083,
      1.7507416315047897,
      6.52710058264998,
      -3.0499122579128475,
      -4.57760701585525,
      3.6916051919372257,
      -11.858567443575225,
      1.1527955397096483,
      -14.533791721047667,
      -9.70479556470735,
      -3.9225102339773583,
      -2.986032337351854,
      5.889978340144316,
      -2.721668312226407,
      12.192764590171402,
      1.8702801108334361,
      -2.132351322383264,
      -5.421083339572218,
      29.31499039125376
    ]
  ],
  "latent_diag_var": [
    0.27285289764404297,
    0.22047311067581177,
    0.18328732252120972,
    0.22471623122692108,
    0.24895094335079193,
    0.22098222374916077,
    0.2191060483455658,
    0.2706342339515686,
    0.17096202075481415,
    0.2844794690608978,
    0.17057302594184875,
    0.2434522956609726,
    0.21395939588546753,
    0.21153050661087036,
    0.2177889049053192,
    0.16742531955242157,
    0.2264534831047058,
    0.2059708535671234,
    0.26463836431503296,
    0.17359817028045654,
    0.21411116421222687,
    0.16955648362636566,
    0.19749540090560913,
    0.17857567965984344,
    0.2273196280002594,
    0.16693143546581268,
    0.22678472101688385,
    0.1808270663022995,
    0.2732156217098236,
    0.2122461348772049,
    0.2728232443332672,
    0.2171437293291092
  ]
}